MMM,0.14531448483467102,-0.31409773230552673,0.9327733516693115,0.13455550372600555,0.550577700138092,0.16976319253444672,1.0159279108047485,0.7982111573219299,-1.0447636842727661,-0.9365718364715576
AOS,0.143961563706398,-0.3300503194332123,0.958677351474762,0.10470155626535416,0.5330820679664612,0.1516793966293335,1.0128052234649658,0.7935716509819031,-1.0555860996246338,-0.9454208612442017
ABT,0.1563473492860794,-0.33780303597450256,0.9814158082008362,0.12888886034488678,0.5940781831741333,0.15276654064655304,1.0755432844161987,0.867125928401947,-1.1086901426315308,-0.999610185623169
ABBV,0.1784237176179886,-0.3307045102119446,0.990501880645752,0.09759671986103058,0.5591874122619629,0.1541062593460083,1.0757455825805664,0.8050090074539185,-1.1122499704360962,-0.9928406476974487
ACN,0.13063456118106842,-0.30660444498062134,0.9017439484596252,0.10494343191385269,0.5464780330657959,0.1590825468301773,1.0219457149505615,0.7445921301841736,-1.0290230512619019,-0.9066730737686157
ADM,0.17459121346473694,-0.3564701974391937,1.0288394689559937,0.1270074099302292,0.6147305965423584,0.15673616528511047,1.1301783323287964,0.8651270270347595,-1.1298996210098267,-1.0307055711746216
ADBE,0.15657919645309448,-0.29200315475463867,0.8740713596343994,0.07866587489843369,0.5206965804100037,0.14444603025913239,0.9555549621582031,0.7449166178703308,-0.984390377998352,-0.8927205204963684
ADP,0.19825004041194916,-0.32847169041633606,1.0429085493087769,0.07775957882404327,0.6138606071472168,0.16848784685134888,1.1258888244628906,0.8416028618812561,-1.1405004262924194,-1.0284379720687866
AES,0.12573733925819397,-0.2710192799568176,0.8213492035865784,0.08991537243127823,0.47862327098846436,0.1468128263950348,0.9127958416938782,0.6717195510864258,-0.917508602142334,-0.8199560642242432
AFL,0.19191382825374603,-0.38302019238471985,1.07963228225708,0.1341101974248886,0.617490828037262,0.17385686933994293,1.2187131643295288,0.9254314303398132,-1.2384239435195923,-1.089144229888916
A,0.12650977075099945,-0.24207179248332977,0.7927271723747253,0.08228637278079987,0.4737761616706848,0.14199881255626678,0.8670287132263184,0.669476330280304,-0.8950894474983215,-0.8163936734199524
ABNB,0.21391110122203827,-0.40396350622177124,1.1808100938796997,0.16224847733974457,0.6400071382522583,0.16499117016792297,1.264108657836914,1.0037281513214111,-1.3001424074172974,-1.173437476158142
APD,0.151393324136734,-0.2873390018939972,0.8048410415649414,0.08161435276269913,0.5132423043251038,0.16602793335914612,0.8784357309341431,0.6721393465995789,-0.9123228192329407,-0.8256939649581909
AKAM,0.14528930187225342,-0.26752403378486633,0.7482426166534424,0.07934097200632095,0.44502589106559753,0.11017552018165588,0.8063258528709412,0.6447589993476868,-0.8291251063346863,-0.7534056305885315
ALK,0.16242274641990662,-0.36605334281921387,1.072399377822876,0.13126805424690247,0.628311812877655,0.1840977966785431,1.2310497760772705,0.9029649496078491,-1.2337034940719604,-1.0831760168075562
ALB,0.16733746230602264,-0.3459840714931488,0.9456630945205688,0.09063137322664261,0.5560753345489502,0.13345922529697418,1.0623388290405273,0.8397437334060669,-1.0813586711883545,-0.9492068290710449
ARE,0.12991464138031006,-0.26710444688796997,0.9096415638923645,0.12936198711395264,0.5002286434173584,0.13093146681785583,0.8906645774841309,0.6970521211624146,-0.9257218837738037,-0.8096455335617065
ALGN,0.14945904910564423,-0.33313584327697754,0.9500457048416138,0.13554175198078156,0.5222826600074768,0.14501160383224487,1.0551729202270508,0.7898452877998352,-1.0617107152938843,-0.9691333770751953
ALLE,0.13883550465106964,-0.30886271595954895,0.8393911123275757,0.12228218466043472,0.4979698956012726,0.1759171485900879,0.906239926815033,0.7091163396835327,-0.9806761741638184,-0.894806981086731
LNT,0.1068512424826622,-0.2891080975532532,0.8550682067871094,0.12657968699932098,0.5194265842437744,0.13319694995880127,0.962903618812561,0.7357275485992432,-0.9430774450302124,-0.8589373826980591
ALL,0.17970037460327148,-0.34759852290153503,0.9776449799537659,0.11588887125253677,0.5740869045257568,0.15828727185726166,1.0854244232177734,0.8523930311203003,-1.1141306161880493,-1.0020440816879272
GOOGL,0.12450747936964035,-0.2772553265094757,0.8408979773521423,0.08911678940057755,0.4892480671405792,0.12090890109539032,0.9228754043579102,0.6918678879737854,-0.9323352575302124,-0.8653028011322021
GOOG,0.12450747936964035,-0.2772553265094757,0.8408979773521423,0.08911678940057755,0.4892480671405792,0.12090890109539032,0.9228754043579102,0.6918678879737854,-0.9323352575302124,-0.8653028011322021
MO,0.1865646243095398,-0.3674512207508087,1.0782768726348877,0.11269351094961166,0.6504026055335999,0.16736078262329102,1.1755592823028564,0.8855450749397278,-1.1975265741348267,-1.0638548135757446
AMZN,0.11983397603034973,-0.2752869725227356,0.797156810760498,0.09226849675178528,0.4662686884403229,0.10771683603525162,0.879243016242981,0.6576846241950989,-0.8894408941268921,-0.8174490332603455
AMCR,0.14961375296115875,-0.26168617606163025,0.8218662738800049,0.11633214354515076,0.5216589570045471,0.1536014825105667,0.9318636059761047,0.697625458240509,-0.9337032437324524,-0.8651282787322998
AMD,0.1405787169933319,-0.2699074149131775,0.8382436037063599,0.10028155893087387,0.49289360642433167,0.14791183173656464,0.9276018142700195,0.7113695740699768,-0.9409272074699402,-0.8546572923660278
AEE,0.07255174219608307,-0.2029251605272293,0.6131940484046936,0.02765451744198799,0.3220885396003723,0.08817290514707565,0.6244211792945862,0.4350264072418213,-0.622085690498352,-0.5954377055168152
AAL,0.16945238411426544,-0.32649773359298706,0.9859431982040405,0.11340714246034622,0.5707906484603882,0.1346212476491928,1.0777390003204346,0.8259209990501404,-1.0893371105194092,-0.9967009425163269
AEP,0.12625984847545624,-0.3058377802371979,0.9701768159866333,0.14574754238128662,0.523906409740448,0.13220030069351196,1.0475438833236694,0.7710204720497131,-1.071821689605713,-0.9402990341186523
AXP,0.14446140825748444,-0.3221834599971771,0.9588832259178162,0.09917749464511871,0.5612512826919556,0.1321016252040863,1.0395855903625488,0.8105072975158691,-1.0688939094543457,-0.9527948498725891
AIG,0.14867356419563293,-0.2739053964614868,0.7666263580322266,0.09517006576061249,0.4467839300632477,0.14151005446910858,0.8592668771743774,0.6410760283470154,-0.8675022721290588,-0.7866367101669312
AMT,0.15919490158557892,-0.328630268573761,0.9693631529808044,0.12235937267541885,0.5367225408554077,0.14846310019493103,1.0229910612106323,0.8137235045433044,-1.0463733673095703,-0.937587320804596
AWK,0.1621009260416031,-0.30100172758102417,0.9469772577285767,0.107594795525074,0.5224429965019226,0.15375034511089325,1.013073205947876,0.7667322158813477,-1.0531270503997803,-0.944976806640625
AMP,0.17815493047237396,-0.375,1.1035476922988892,0.08170505613088608,0.6447230577468872,0.16445553302764893,1.2161723375320435,0.9093514084815979,-1.244736909866333,-1.08211350440979
AME,0.12914282083511353,-0.31143781542778015,0.9517866969108582,0.12674425542354584,0.557729184627533,0.133088618516922,1.020750641822815,0.792636513710022,-1.0780109167099,-0.9591482877731323
AMGN,0.19812996685504913,-0.35814470052719116,1.139762043952942,0.10338027030229568,0.6707320809364319,0.16210679709911346,1.2074167728424072,0.9302846789360046,-1.259758472442627,-1.1427359580993652
APH,0.13464978337287903,-0.2970992624759674,0.8224173784255981,0.12336777150630951,0.49183768033981323,0.14863093197345734,0.9118717908859253,0.7475957870483398,-0.9336310625076294,-0.8210815191268921
ADI,0.12940411269664764,-0.3322572112083435,0.9741803407669067,0.12546439468860626,0.5857247114181519,0.13053494691848755,1.0773900747299194,0.8210651874542236,-1.0684998035430908,-0.9863564372062683
ANSS,0.17692995071411133,-0.3419438600540161,1.0465977191925049,0.12756557762622833,0.621273934841156,0.16435506939888,1.1356792449951172,0.8651335835456848,-1.1796355247497559,-1.0726264715194702
AON,0.12391145527362823,-0.2673518657684326,0.8091527819633484,0.073910653591156,0.48773035407066345,0.12167233228683472,0.8972201943397522,0.6703936457633972,-0.9264851212501526,-0.8388069868087769
APA,0.17970632016658783,-0.386370986700058,1.1758478879928589,0.12739868462085724,0.6764103770256042,0.15304645895957947,1.2854104042053223,0.9812915921211243,-1.301624059677124,-1.173254370689392
AAPL,0.14708222448825836,-0.31733259558677673,0.9524751901626587,0.09325148910284042,0.5416355133056641,0.14041492342948914,1.0468461513519287,0.7945690751075745,-1.0581790208816528,-0.9691234230995178
AMAT,0.13990354537963867,-0.30383896827697754,0.9108260273933411,0.09987586736679077,0.5387752056121826,0.1445905566215515,0.9933322072029114,0.7828962802886963,-1.014272689819336,-0.9433276057243347
APTV,0.17999912798404694,-0.31528913974761963,0.8700912594795227,0.11664343625307083,0.5327120423316956,0.11122274398803711,0.9783653616905212,0.7378666400909424,-1.021846890449524,-0.9280884265899658
ACGL,0.17488247156143188,-0.3221287429332733,0.8748034834861755,0.13068613409996033,0.5122616291046143,0.11758941411972046,0.97390216588974,0.7394523024559021,-0.9754031896591187,-0.9005886316299438
ANET,0.16062591969966888,-0.25369930267333984,0.8013823628425598,0.08006768673658371,0.4464126229286194,0.141739621758461,0.8516424894332886,0.6633012294769287,-0.8856050372123718,-0.7984157204627991
AJG,0.1450640708208084,-0.32654425501823425,0.8914610147476196,0.10351977497339249,0.5272356271743774,0.1433710753917694,0.9835554957389832,0.7562103271484375,-0.9945240020751953,-0.9097502827644348
AIZ,0.15670748054981232,-0.31655192375183105,0.8583714962005615,0.11849599331617355,0.5309707522392273,0.16295355558395386,0.9328839182853699,0.7321494221687317,-0.9683225750923157,-0.8726508021354675
T,0.15279586613178253,-0.3110978901386261,0.9335541725158691,0.10627079010009766,0.542495846748352,0.13393130898475647,1.0444697141647339,0.7858079075813293,-1.0505664348602295,-0.9345005750656128
ATO,0.14136472344398499,-0.3256356418132782,0.9722596406936646,0.11081254482269287,0.5604451894760132,0.15409274399280548,1.036257028579712,0.7955604195594788,-1.0667552947998047,-0.9471338987350464
ADSK,0.0,0.0,0.0,0.0,0.0,0.0,0.0,0.0,0.0,0.0
AZO,0.17017261683940887,-0.36630740761756897,1.0759090185165405,0.14202535152435303,0.6340038180351257,0.1650334745645523,1.2032257318496704,0.8809024691581726,-1.2134130001068115,-1.0573234558105469
AVB,0.12442371994256973,-0.26891452074050903,0.9190740585327148,0.08668717741966248,0.4469347894191742,0.09271267801523209,0.8743356466293335,0.7133581042289734,-0.8950878381729126,-0.783478856086731
AVY,0.1327611804008484,-0.35784462094306946,1.0311001539230347,0.11297924071550369,0.6384953260421753,0.18890270590782166,1.1523706912994385,0.9023513197898865,-1.151275634765625,-1.0563260316848755
AXON,0.2030903548002243,-0.3699963390827179,1.100018858909607,0.13890144228935242,0.657861590385437,0.17493967711925507,1.2185194492340088,0.9412535429000854,-1.2284893989562988,-1.1395609378814697
BKR,0.17068320512771606,-0.33089467883110046,1.0054818391799927,0.09878483414649963,0.5822799205780029,0.1540101319551468,1.096895694732666,0.8290436267852783,-1.1006884574890137,-0.998519241809845
BALL,0.15858739614486694,-0.3446347713470459,1.0250505208969116,0.11033019423484802,0.6037804484367371,0.15612328052520752,1.1096028089523315,0.8478571772575378,-1.138819932937622,-1.0159095525741577
BAC,0.15218709409236908,-0.30533045530319214,0.8931976556777954,0.09551356732845306,0.5259811282157898,0.13032518327236176,0.9606035947799683,0.7294394373893738,-0.9902732372283936,-0.8737849593162537
BBWI,0.1762874871492386,-0.3593987822532654,1.0386425256729126,0.11780326813459396,0.6224203705787659,0.16775447130203247,1.1410771608352661,0.8765082359313965,-1.1645241975784302,-1.0349419116973877
BAX,0.1864023208618164,-0.3467356562614441,1.0981762409210205,0.17507794499397278,0.6666743755340576,0.1625887006521225,1.179733157157898,0.9414860606193542,-1.2006276845932007,-1.1252027750015259
BDX,0.0,0.0,0.0,0.0,0.0,0.0,0.0,0.0,0.0,0.0
WRB,0.1388641893863678,-0.34213995933532715,0.8830571174621582,0.10363680124282837,0.515872061252594,0.13327687978744507,0.9525833129882812,0.7494921684265137,-0.9689865112304688,-0.870978057384491
BRK.B,0.1269814670085907,-0.2773488759994507,0.8303657174110413,0.09141156077384949,0.48101311922073364,0.12211660295724869,0.9054008722305298,0.6740150451660156,-0.9263010025024414,-0.8110836148262024
BBY,0.11103583872318268,-0.23618252575397491,0.6964273452758789,0.0818147137761116,0.42145639657974243,0.11468379199504852,0.7593092918395996,0.6062145233154297,-0.7840758562088013,-0.7170448899269104
BIO,0.17004650831222534,-0.3218562602996826,1.001654028892517,0.13422629237174988,0.5996100902557373,0.17069606482982635,1.0896097421646118,0.8616313934326172,-1.1291494369506836,-1.0118221044540405
TECH,0.1748379021883011,-0.28513282537460327,0.9469467401504517,0.12353154271841049,0.5651487112045288,0.14941060543060303,1.0130153894424438,0.8090630769729614,-1.071319818496704,-0.9593426585197449
BIIB,0.11634500324726105,-0.24840232729911804,0.7815065383911133,0.11959768086671829,0.4571843445301056,0.11950123310089111,0.8553124666213989,0.672614336013794,-0.8825337290763855,-0.7926610708236694
BLK,0.1455535739660263,-0.2831219732761383,0.8173632621765137,0.06473498791456223,0.49768099188804626,0.11659514904022217,0.8971418142318726,0.6722294688224792,-0.9150384068489075,-0.7983496189117432
BX,0.15329724550247192,-0.3342503011226654,0.9800319075584412,0.10228198021650314,0.5684701800346375,0.14645777642726898,1.0292973518371582,0.7993514537811279,-1.0639818906784058,-0.9540603160858154
BK,0.15999740362167358,-0.3239041864871979,0.9551075100898743,0.0642973929643631,0.5741625428199768,0.1622377187013626,1.012069821357727,0.7893154621124268,-1.0276248455047607,-0.9314195513725281
BA,0.13842250406742096,-0.31534847617149353,0.9543962478637695,0.0995098277926445,0.5594356656074524,0.15647858381271362,1.0355792045593262,0.7864413261413574,-1.0640562772750854,-0.9551636576652527
BKNG,0.1549174189567566,-0.315408319234848,0.877213716506958,0.09026465564966202,0.5044873952865601,0.14214526116847992,0.9343217015266418,0.7379353642463684,-0.9876907467842102,-0.8867373466491699
BWA,0.14241109788417816,-0.339426189661026,0.9271514415740967,0.09678329527378082,0.5313857793807983,0.12379580736160278,1.0287854671478271,0.794270396232605,-1.058382511138916,-0.9545315504074097
BXP,0.1506597250699997,-0.28150466084480286,0.9129697680473328,0.09022143483161926,0.487173855304718,0.12670600414276123,0.9013307690620422,0.7022363543510437,-0.9225648045539856,-0.8394467830657959
BSX,0.1307802051305771,-0.27354884147644043,0.8179607391357422,0.0992598757147789,0.4667723476886749,0.12801876664161682,0.8970882892608643,0.719512939453125,-0.9149171113967896,-0.8452346324920654
BMY,0.18941663205623627,-0.3886774778366089,1.1167166233062744,0.12468329817056656,0.6482704281806946,0.19102881848812103,1.2357486486434937,0.9275268912315369,-1.2563517093658447,-1.118395209312439
AVGO,0.14387035369873047,-0.2879543900489807,0.8742769360542297,0.101700559258461,0.5058886408805847,0.13732607662677765,0.9329578876495361,0.7160772681236267,-0.9775432348251343,-0.8655564188957214
BR,0.14875994622707367,-0.32714352011680603,0.9921640753746033,0.10073518007993698,0.5793342590332031,0.15217657387256622,1.0948381423950195,0.8202225565910339,-1.0917466878890991,-0.9650177955627441
BRO,0.1429665982723236,-0.2569008469581604,0.687354564666748,0.058230236172676086,0.4150683581829071,0.12317166477441788,0.7167039513587952,0.6129291653633118,-0.7524242401123047,-0.680508017539978
BF.B,0.17605911195278168,-0.3817429542541504,1.0470659732818604,0.12387776374816895,0.626613199710846,0.17287567257881165,1.150801420211792,0.9006590247154236,-1.1709411144256592,-1.0682264566421509
BG,0.18734467029571533,-0.3886006772518158,1.1852411031723022,0.148477241396904,0.6770053505897522,0.1620548665523529,1.3090616464614868,0.9695854187011719,-1.296215534210205,-1.169545292854309
CHRW,0.15883032977581024,-0.2738967835903168,0.8196965456008911,0.13133157789707184,0.45858249068260193,0.1345016062259674,0.9562665820121765,0.7018979787826538,-0.9409225583076477,-0.8494493365287781
CDNS,0.1873515099287033,-0.34980151057243347,1.0671926736831665,0.13096173107624054,0.6087464690208435,0.16281601786613464,1.153319001197815,0.8961101174354553,-1.186659336090088,-1.0653332471847534
CZR,0.14331363141536713,-0.24936336278915405,0.7872560620307922,0.0932018980383873,0.48815396428108215,0.14510071277618408,0.9130309820175171,0.705466628074646,-0.9294214844703674,-0.8026248812675476
CPT,0.13315384089946747,-0.27501291036605835,0.8757576942443848,0.102596715092659,0.47973495721817017,0.11111082136631012,0.8783873319625854,0.6931278109550476,-0.8974259495735168,-0.780611515045166
CPB,0.17269223928451538,-0.34375566244125366,1.024048089981079,0.11282039433717728,0.5989915132522583,0.16205613315105438,1.1000686883926392,0.845355749130249,-1.1383616924285889,-1.0113425254821777
COF,0.15405170619487762,-0.33707597851753235,1.006135106086731,0.1124904677271843,0.5856640338897705,0.1532212346792221,1.1004905700683594,0.8019189238548279,-1.1079829931259155,-0.999730110168457
CAH,0.1705043464899063,-0.36075660586357117,1.124807357788086,0.12412954121828079,0.664497971534729,0.18229740858078003,1.206190586090088,0.9487941265106201,-1.247388243675232,-1.1144461631774902
KMX,0.1631791591644287,-0.2815088629722595,0.8770118355751038,0.10241172462701797,0.5473096370697021,0.15662233531475067,0.970111072063446,0.7358396649360657,-0.9864153861999512,-0.8607813119888306
CCL,0.12072098255157471,-0.26277971267700195,0.790449321269989,0.08554238080978394,0.45832589268684387,0.1262439638376236,0.8183379173278809,0.6565314531326294,-0.8615350127220154,-0.7530692219734192
CARR,0.15238597989082336,-0.2904812693595886,0.8750833868980408,0.1234707236289978,0.5226743817329407,0.142530620098114,0.9484311938285828,0.7659661173820496,-0.9902825951576233,-0.8801618218421936
CTLT,0.13834629952907562,-0.3084273338317871,0.9216511249542236,0.09372604638338089,0.5405683517456055,0.1324635148048401,1.0024291276931763,0.7807623744010925,-1.041244626045227,-0.9121184945106506
CAT,0.17551268637180328,-0.3371853828430176,0.9406328797340393,0.11166439205408096,0.557723343372345,0.15553872287273407,1.0318398475646973,0.7674914598464966,-1.0630342960357666,-0.9511865377426147
CBOE,0.15427538752555847,-0.34717464447021484,1.0080910921096802,0.11642162501811981,0.5788109302520752,0.1617555022239685,1.0837987661361694,0.8039665222167969,-1.1265367269515991,-0.9760551452636719
CBRE,0.20146313309669495,-0.36809244751930237,1.1741234064102173,0.14022858440876007,0.6533968448638916,0.17351776361465454,1.2142305374145508,0.9327995181083679,-1.2562222480773926,-1.1237424612045288
CDW,0.15770858526229858,-0.3255712687969208,1.0199531316757202,0.09537762403488159,0.610491156578064,0.1702359914779663,1.106289029121399,0.8414145708084106,-1.1371092796325684,-1.0062525272369385
CE,0.16817106306552887,-0.3730701208114624,1.0682964324951172,0.12089009582996368,0.6420776844024658,0.18150505423545837,1.1846305131912231,0.9031487703323364,-1.189189076423645,-1.0834355354309082
COR,0.19771239161491394,-0.37272292375564575,1.0441405773162842,0.12484157085418701,0.6493319272994995,0.14305131137371063,1.172745943069458,0.904938817024231,-1.1707501411437988,-1.0993329286575317
CNC,0.11537104845046997,-0.28205353021621704,0.8548185229301453,0.08403454720973969,0.5186129212379456,0.1341184675693512,0.9253931045532227,0.7236980199813843,-0.9609577059745789,-0.8500933051109314
CNP,0.16020983457565308,-0.30874669551849365,0.9551375508308411,0.12550918757915497,0.5611281394958496,0.170376718044281,1.0477633476257324,0.7959997057914734,-1.083101749420166,-0.941017746925354
CDAY,0.18934614956378937,-0.320943146944046,1.0291343927383423,0.08726701885461807,0.5872931480407715,0.1728263944387436,1.0690056085586548,0.8162652254104614,-1.0937035083770752,-0.9796242713928223
CF,0.1712161898612976,-0.3086274564266205,0.8759948015213013,0.10197524726390839,0.5148380994796753,0.14179548621177673,0.9374126195907593,0.742048442363739,-0.9750842452049255,-0.8848694562911987
CRL,0.14175546169281006,-0.25267651677131653,0.7744242548942566,0.0981626808643341,0.47401562333106995,0.138147234916687,0.8564086556434631,0.6671696305274963,-0.879912793636322,-0.7972480058670044
SCHW,0.15105165541172028,-0.3246459364891052,0.9459790587425232,0.11232465505599976,0.5512985587120056,0.13539139926433563,1.0588315725326538,0.7698878049850464,-1.0680263042449951,-0.9539071321487427
CHTR,0.12745173275470734,-0.26534169912338257,0.8077552318572998,0.09696068614721298,0.4749196171760559,0.12790332734584808,0.8929442763328552,0.6536505818367004,-0.9191609025001526,-0.8153713941574097
CVX,0.12892580032348633,-0.26744452118873596,0.8156810998916626,0.07575325667858124,0.487252801656723,0.13375607132911682,0.8929926156997681,0.6998347640037537,-0.8933684825897217,-0.8257082104682922
CMG,0.13600926101207733,-0.32489970326423645,0.9027125239372253,0.1163003221154213,0.5678542256355286,0.11526570469141006,0.9842473268508911,0.750493049621582,-1.0030326843261719,-0.8971115946769714
CB,0.16301822662353516,-0.3087961673736572,0.8491914868354797,0.09080430120229721,0.47151482105255127,0.1471063643693924,0.9183070659637451,0.727571964263916,-0.9469602108001709,-0.8451907634735107
CHD,0.179000586271286,-0.3735291361808777,1.0796048641204834,0.10610091686248779,0.6505959630012512,0.17567498981952667,1.1757169961929321,0.9004617929458618,-1.208754539489746,-1.0850985050201416
CI,0.1739267259836197,-0.3282061517238617,0.9277316927909851,0.1049889326095581,0.5469545125961304,0.15552140772342682,1.0386093854904175,0.8059480786323547,-1.0708526372909546,-0.9500437378883362
CINF,0.15584784746170044,-0.35276660323143005,0.9335070252418518,0.08914455771446228,0.5190160274505615,0.13164056837558746,1.0490429401397705,0.810234010219574,-1.0336183309555054,-0.9260711073875427
CTAS,0.13923203945159912,-0.3242589831352234,0.9469709992408752,0.10003212094306946,0.5641949772834778,0.16049277782440186,1.0067229270935059,0.7803162336349487,-1.0570173263549805,-0.9449094533920288
CSCO,0.13345392048358917,-0.3019357919692993,0.8554864525794983,0.09029926359653473,0.5261059999465942,0.1376849263906479,0.943034291267395,0.728654682636261,-0.9667567610740662,-0.8855161666870117
C,0.18846923112869263,-0.3540080189704895,1.1100205183029175,0.10915659368038177,0.6560623645782471,0.16375252604484558,1.1997061967849731,0.9267602562904358,-1.2128723859786987,-1.0927180051803589
CFG,0.14781548082828522,-0.3000537157058716,0.9089178442955017,0.06906239688396454,0.5200695395469666,0.15468326210975647,0.9535631537437439,0.7229532599449158,-0.9930878281593323,-0.8477494716644287
CLX,0.14811928570270538,-0.3251659572124481,0.9195381999015808,0.10340866446495056,0.5334774851799011,0.151352196931839,1.0276552438735962,0.7763733863830566,-1.0535662174224854,-0.9586004018783569
CME,0.16225787997245789,-0.32865485548973083,0.9525654911994934,0.08857601881027222,0.5605791211128235,0.1413717269897461,1.0177466869354248,0.749947726726532,-1.0463511943817139,-0.9045506119728088
CMS,0.13820379972457886,-0.2637459635734558,0.8319342732429504,0.12810944020748138,0.4941266179084778,0.16380392014980316,0.9221446514129639,0.6896536946296692,-0.9577442407608032,-0.8308664560317993
KO,0.16712896525859833,-0.3481219708919525,1.0032399892807007,0.12880288064479828,0.5881646871566772,0.1661548763513565,1.0878034830093384,0.8402923941612244,-1.1174328327178955,-1.0096243619918823
CTSH,0.1618078052997589,-0.31812605261802673,1.0097805261611938,0.09675223380327225,0.5960648059844971,0.1460992395877838,1.0909851789474487,0.8148844838142395,-1.1055394411087036,-1.0084118843078613
CL,0.1682843565940857,-0.3400218188762665,1.0571106672286987,0.11100873351097107,0.6201837062835693,0.14504238963127136,1.1319549083709717,0.9030618667602539,-1.1613329648971558,-1.0463231801986694
CMCSA,0.15144608914852142,-0.3208729326725006,0.9488892555236816,0.11153872311115265,0.5591451525688171,0.15752576291561127,1.0402531623840332,0.788096010684967,-1.063060998916626,-0.9496989846229553
CMA,0.18253368139266968,-0.332206666469574,1.0279316902160645,0.11069044470787048,0.5691953897476196,0.17662407457828522,1.1341689825057983,0.8315974473953247,-1.1236212253570557,-1.012010931968689
CAG,0.18009822070598602,-0.34739798307418823,1.0136821269989014,0.11629747599363327,0.6221638917922974,0.16346850991249084,1.0958027839660645,0.8466393947601318,-1.1250859498977661,-1.0249097347259521
COP,0.15626969933509827,-0.314897745847702,0.8962463736534119,0.13974134624004364,0.5477247834205627,0.13217324018478394,1.0320242643356323,0.7734707593917847,-1.0363025665283203,-0.9312978386878967
ED,0.1573236733675003,-0.33843010663986206,1.0078444480895996,0.11352775245904922,0.5896739363670349,0.14399418234825134,1.097478985786438,0.8349887132644653,-1.1376081705093384,-1.0037277936935425
STZ,0.17083582282066345,-0.35457462072372437,1.0494438409805298,0.11020344495773315,0.621128499507904,0.17350487411022186,1.1308640241622925,0.8797643780708313,-1.1303675174713135,-1.0287469625473022
CEG,0.15803904831409454,-0.38155925273895264,1.157424807548523,0.1316496729850769,0.6802686452865601,0.18675391376018524,1.2655621767044067,0.9510107636451721,-1.3310774564743042,-1.1519384384155273
COO,0.14035087823867798,-0.279192179441452,0.891503632068634,0.11147216707468033,0.541904628276825,0.1522645652294159,0.9843607544898987,0.7799617052078247,-0.9966189861297607,-0.918161928653717
CPRT,0.1270473301410675,-0.27230557799339294,0.7624842524528503,0.07897450029850006,0.44449642300605774,0.12832032144069672,0.8250830173492432,0.6372774243354797,-0.8618917465209961,-0.7715166807174683
GLW,0.13914833962917328,-0.30869340896606445,0.878551721572876,0.10935647040605545,0.5119401216506958,0.13630685210227966,0.9443128108978271,0.7348389625549316,-0.9701898097991943,-0.900759756565094
CTVA,0.16590946912765503,-0.3041571080684662,0.9042022824287415,0.12042297422885895,0.5202178955078125,0.12236293405294418,0.9564310908317566,0.7440462112426758,-0.9602087736129761,-0.8890073299407959
CSGP,0.1806333214044571,-0.3360952138900757,0.9523007273674011,0.11288309842348099,0.5670519471168518,0.14740890264511108,1.0295631885528564,0.7865359783172607,-1.0717884302139282,-0.9478234052658081
COST,0.14894527196884155,-0.3015787899494171,0.8882409334182739,0.06709186732769012,0.5470549464225769,0.1404775083065033,0.9814650416374207,0.7341099977493286,-0.9901748895645142,-0.8870197534561157
CTRA,0.18138210475444794,-0.3341979384422302,0.9706182479858398,0.13601040840148926,0.5619894862174988,0.13699477910995483,1.0683602094650269,0.8120008707046509,-1.0892701148986816,-0.9802658557891846
CCI,0.15210363268852234,-0.2849293351173401,0.9224887490272522,0.12305977195501328,0.5072534680366516,0.1287805289030075,0.9383249282836914,0.7232644557952881,-0.9562284350395203,-0.8567575216293335
CSX,0.14565089344978333,-0.26454150676727295,0.815009593963623,0.10248541831970215,0.46474531292915344,0.13141435384750366,0.8737643361091614,0.6806368231773376,-0.8843001127243042,-0.7993003726005554
CMI,0.14669786393642426,-0.3088034689426422,0.9359837174415588,0.11791694164276123,0.5474986433982849,0.1540541648864746,1.0258833169937134,0.7870364785194397,-1.0832375288009644,-0.9483557343482971
CVS,0.13776078820228577,-0.3229910433292389,0.9536910653114319,0.10756216198205948,0.5809199213981628,0.1539410501718521,1.0345029830932617,0.8425659537315369,-1.0753779411315918,-0.9467055201530457
DHI,0.17949296534061432,-0.39463692903518677,1.1581779718399048,0.12884202599525452,0.6602774858474731,0.1697702407836914,1.2690309286117554,0.9598356485366821,-1.289759874343872,-1.1432054042816162
DHR,0.15538784861564636,-0.3192816376686096,0.9634471535682678,0.1213185265660286,0.5490574240684509,0.15417924523353577,1.0272648334503174,0.7944924831390381,-1.0492744445800781,-0.9425784349441528
DRI,0.16945402324199677,-0.05437726154923439,0.4408152103424072,0.10221963375806808,0.2947174608707428,0.008409622125327587,0.5501982569694519,0.2542218863964081,-0.38481754064559937,-0.3942141830921173
DVA,0.13791972398757935,-0.28260356187820435,0.8276596069335938,0.08426539599895477,0.47054582834243774,0.10387032479047775,0.8605751991271973,0.6866898536682129,-0.882269561290741,-0.7904233336448669
DE,0.13577331602573395,-0.3136935830116272,0.9524200558662415,0.13194015622138977,0.5528958439826965,0.1715487688779831,1.0743005275726318,0.8421213030815125,-1.1129525899887085,-0.9965171813964844
DAL,0.1434839963912964,-0.28150635957717896,0.8076714277267456,0.07001043111085892,0.4759160876274109,0.106746606528759,0.8677035570144653,0.6643106937408447,-0.8878636956214905,-0.8178501129150391
XRAY,0.15998132526874542,-0.2799243927001953,0.8607010245323181,0.10836287587881088,0.5290200710296631,0.14445677399635315,0.943117618560791,0.7534372210502625,-0.9863642454147339,-0.8719825744628906
DVN,0.1453201323747635,-0.29816046357154846,0.8198511600494385,0.11080411821603775,0.49900028109550476,0.124228835105896,0.9306115508079529,0.6844279766082764,-0.9530947208404541,-0.8301994204521179
DXCM,0.15173178911209106,-0.3035602271556854,0.8946741819381714,0.11174622178077698,0.5357295274734497,0.13630887866020203,1.0268778800964355,0.7987414002418518,-0.9735029339790344,-0.9221471548080444
FANG,0.18927228450775146,-0.34896835684776306,0.9815753102302551,0.1347510665655136,0.574953556060791,0.15263107419013977,1.101891040802002,0.8145006895065308,-1.1130207777023315,-0.9958580136299133
DLR,0.170654296875,-0.32764697074890137,0.9914249777793884,0.09361311793327332,0.5332642197608948,0.13681967556476593,1.026829481124878,0.771637499332428,-1.0418671369552612,-0.9360501170158386
DFS,0.15349793434143066,-0.28569120168685913,0.8490176796913147,0.08540196716785431,0.5139590501785278,0.15484890341758728,0.961077094078064,0.7137930393218994,-0.9419581890106201,-0.8431082963943481
DIS,0.1508006453514099,-0.25346535444259644,0.7694045901298523,0.1147846207022667,0.46768853068351746,0.11985860764980316,0.8403356671333313,0.6453151106834412,-0.8396015167236328,-0.7715483903884888
DG,0.14833107590675354,-0.27126598358154297,0.8484288454055786,0.0748404711484909,0.5086982250213623,0.1215674877166748,0.9282402396202087,0.6741016507148743,-0.9106001853942871,-0.8380451202392578
DLTR,0.16653940081596375,-0.3142247498035431,0.8952736854553223,0.09170988202095032,0.5229610800743103,0.1331506371498108,0.9734030365943909,0.7354461550712585,-0.973098874092102,-0.8802000880241394
D,0.14403611421585083,-0.3538496792316437,1.1502125263214111,0.17316922545433044,0.607975423336029,0.15850922465324402,1.2496274709701538,0.8919575214385986,-1.2889341115951538,-1.1140530109405518
DPZ,0.15020424127578735,-0.28075098991394043,0.8609428405761719,0.07502085715532303,0.550320565700531,0.10971354693174362,0.9351269602775574,0.7215352058410645,-0.9553577303886414,-0.8505879044532776
DOV,0.17053425312042236,-0.34254181385040283,1.0030088424682617,0.10509341955184937,0.5867683291435242,0.18293103575706482,1.0914167165756226,0.8263261318206787,-1.1099871397018433,-0.9937645792961121
DOW,0.15383604168891907,-0.3787321448326111,1.1208763122558594,0.12741291522979736,0.6594025492668152,0.16914942860603333,1.2182459831237793,0.9524648189544678,-1.2401479482650757,-1.1022969484329224
DTE,0.16052253544330597,-0.28509122133255005,0.9281252026557922,0.13742713630199432,0.5350497364997864,0.1627952754497528,1.0082461833953857,0.7640466094017029,-1.0628303289413452,-0.9224042296409607
DUK,0.14772504568099976,-0.36200639605522156,1.0806149244308472,0.13553716242313385,0.6176513433456421,0.18253174424171448,1.1838428974151611,0.8931630253791809,-1.220482587814331,-1.0614721775054932
DD,0.14544954895973206,-0.30165180563926697,0.8445278406143188,0.1016523689031601,0.5038262605667114,0.1325259655714035,0.8990799188613892,0.7103303670883179,-0.9315051436424255,-0.8459689021110535
EMN,0.13291943073272705,-0.30864217877388,0.8606100082397461,0.11969463527202606,0.5242401361465454,0.15594491362571716,0.9790261387825012,0.7592421174049377,-0.9732824563980103,-0.8902866840362549
ETN,0.14295616745948792,-0.361448734998703,1.0135447978973389,0.11644003540277481,0.6065354347229004,0.15739095211029053,1.139668583869934,0.8598417043685913,-1.1688802242279053,-1.0287108421325684
EBAY,0.13155736029148102,-0.23289677500724792,0.6776899099349976,0.08083910495042801,0.4187907576560974,0.1227186918258667,0.7813765406608582,0.5896009802818298,-0.7848944067955017,-0.7088587880134583
ECL,0.11292530596256256,-0.2490488886833191,0.7982574105262756,0.0945812314748764,0.464487761259079,0.11713165789842606,0.8672409653663635,0.6707240343093872,-0.884585440158844,-0.7959466576576233
EIX,0.1416712999343872,-0.3075360059738159,0.9712614417076111,0.14461281895637512,0.5901297926902771,0.16541875898838043,1.049248456954956,0.8411974310874939,-1.086963176727295,-0.98482745885849
EW,0.12051418423652649,-0.30018600821495056,0.9262264370918274,0.1018085703253746,0.5442612171173096,0.15189078450202942,0.9981870651245117,0.7824310660362244,-1.0082768201828003,-0.9239277243614197
EA,0.15475963056087494,-0.2778633236885071,0.8459113836288452,0.0889793410897255,0.49107012152671814,0.1132579818367958,0.9458476901054382,0.7152214050292969,-0.9435448050498962,-0.8510128855705261
ELV,0.1666586697101593,-0.3082197606563568,0.9434225559234619,0.08997073024511337,0.5527320504188538,0.1762756109237671,1.0013560056686401,0.8075641989707947,-1.0837327241897583,-0.9529557824134827
LLY,0.23670069873332977,-0.40682995319366455,1.151971459388733,0.15004588663578033,0.6702767610549927,0.19897960126399994,1.258237600326538,0.9459465146064758,-1.3041433095932007,-1.1869080066680908
EMR,0.18941882252693176,-0.3831660747528076,1.1516002416610718,0.14608344435691833,0.6576009392738342,0.1860584169626236,1.2612919807434082,0.9463111162185669,-1.2828541994094849,-1.1512877941131592
ENPH,0.13716505467891693,-0.28465601801872253,0.9113404154777527,0.12667740881443024,0.5335364937782288,0.15062439441680908,1.0040363073349,0.771902322769165,-1.0299758911132812,-0.9139707088470459
ETR,0.13305321335792542,-0.3126809000968933,0.9282099008560181,0.098384328186512,0.5225183367729187,0.13935919106006622,1.025944709777832,0.7513699531555176,-1.0366499423980713,-0.9118704795837402
EOG,0.15951207280158997,-0.27300068736076355,0.8597503900527954,0.0998704805970192,0.49191197752952576,0.11240927875041962,0.9235228896141052,0.7117815017700195,-0.9589257836341858,-0.8637464642524719
EPAM,0.16187937557697296,-0.2830386161804199,0.859666109085083,0.09669743478298187,0.4756647050380707,0.14691796898841858,0.9039401412010193,0.7181798815727234,-0.9714533686637878,-0.8789982795715332
EQT,0.160676509141922,-0.320152223110199,0.9492166638374329,0.1181914210319519,0.5654953718185425,0.14923027157783508,1.0492827892303467,0.8127791285514832,-1.076018214225769,-0.9658619165420532
EFX,0.1593663990497589,-0.3122698664665222,0.9041239619255066,0.10937251150608063,0.5352371335029602,0.13200323283672333,1.0064988136291504,0.7468693256378174,-1.0066778659820557,-0.9584534764289856
EQIX,0.15277516841888428,-0.3236876130104065,0.9879040718078613,0.10631997138261795,0.5515692830085754,0.12154223769903183,1.0662240982055664,0.8143946528434753,-1.064566969871521,-1.0011497735977173
EQR,0.09386307001113892,-0.25626376271247864,0.8460392951965332,0.07485394924879074,0.40930303931236267,0.09877129644155502,0.8150460124015808,0.6426031589508057,-0.8154886960983276,-0.7139055132865906
ESS,0.11212432384490967,-0.27023184299468994,0.8532912135124207,0.09212402999401093,0.43163031339645386,0.08973165601491928,0.8343797922134399,0.6674415469169617,-0.8510975241661072,-0.742138147354126
EL,0.1749430000782013,-0.3241921067237854,0.9986464381217957,0.09169458597898483,0.5879248380661011,0.15986254811286926,1.0787150859832764,0.8464859127998352,-1.1063741445541382,-0.9937824606895447
ETSY,0.11114680767059326,-0.24575120210647583,0.7003980278968811,0.07957068085670471,0.4247664213180542,0.0944237932562828,0.7770499587059021,0.6047959923744202,-0.8060967922210693,-0.7234897613525391
EG,0.15030458569526672,-0.28932514786720276,0.819658100605011,0.14158588647842407,0.46309587359428406,0.12383132427930832,0.878993570804596,0.7011147141456604,-0.923245370388031,-0.8308442831039429
EVRG,0.14065228402614594,-0.2734450399875641,0.795232892036438,0.11307018250226974,0.464417040348053,0.1185554787516594,0.8749260902404785,0.6590926051139832,-0.8692520260810852,-0.7744072675704956
ES,0.14446644484996796,-0.28287190198898315,0.8612546324729919,0.09877657145261765,0.5011717081069946,0.1439400166273117,0.934614896774292,0.7198905944824219,-0.9650949835777283,-0.8610382676124573
EXC,0.16955746710300446,-0.36452415585517883,1.149234652519226,0.13527865707874298,0.6585286259651184,0.16941606998443604,1.2576426267623901,0.9531818628311157,-1.281423807144165,-1.1244218349456787
EXPE,0.1481035351753235,-0.3080556392669678,0.8888533115386963,0.09677271544933319,0.5196449160575867,0.14731387794017792,0.9536444544792175,0.7394531965255737,-0.9840035438537598,-0.9006612300872803
EXPD,0.148006871342659,-0.3117835521697998,0.9019342064857483,0.1317896842956543,0.5345798134803772,0.13828226923942566,0.9950537085533142,0.7870447635650635,-0.9762647151947021,-0.92063307762146
EXR,0.13029314577579498,-0.25642481446266174,0.8701969385147095,0.11283218860626221,0.4978369176387787,0.15143170952796936,0.907726526260376,0.7189987897872925,-0.9403508305549622,-0.8358591198921204
XOM,0.13894811272621155,-0.2856422960758209,0.8495388031005859,0.07016240060329437,0.5048166513442993,0.14906075596809387,0.9408613443374634,0.7348892092704773,-0.9382137656211853,-0.868911623954773
FFIV,0.11754076182842255,-0.2764434516429901,0.8137487769126892,0.08850213140249252,0.5039899349212646,0.10683001577854156,0.8443066477775574,0.699633002281189,-0.8864777088165283,-0.7811986207962036
FDS,0.16895465552806854,-0.3173027038574219,0.9511194825172424,0.09245558083057404,0.5432819724082947,0.13064253330230713,1.0549001693725586,0.7811442613601685,-1.0845261812210083,-0.9518715143203735
FICO,0.15771110355854034,-0.3329034745693207,0.9754867553710938,0.11511929333209991,0.5620548129081726,0.15299707651138306,1.0895706415176392,0.8064119219779968,-1.0868483781814575,-0.9960765838623047
FAST,0.19922037422657013,-0.3591850996017456,1.005282998085022,0.12098238617181778,0.5726669430732727,0.19815438985824585,1.0936795473098755,0.8297221064567566,-1.120827317237854,-0.9943179488182068
FRT,0.13939006626605988,-0.2902098596096039,0.9903078675270081,0.09743957221508026,0.5190602540969849,0.09862179309129715,0.9645351767539978,0.7417630553245544,-0.9836753606796265,-0.8624802231788635
FDX,0.13913361728191376,-0.29169872403144836,0.8013267517089844,0.08943511545658112,0.4902157783508301,0.12021303176879883,0.8727705478668213,0.6953347325325012,-0.8863377571105957,-0.8273015022277832
FITB,0.11808304488658905,-0.33369141817092896,0.9008930325508118,0.08198799192905426,0.5299444794654846,0.13690197467803955,0.9749839901924133,0.7431663870811462,-0.9682846665382385,-0.8833340406417847
FSLR,0.14607349038124084,-0.25519227981567383,0.7924913763999939,0.11106276512145996,0.47650450468063354,0.1516670435667038,0.8819728493690491,0.679994523525238,-0.9245991110801697,-0.7958235740661621
FE,0.128712460398674,-0.29247474670410156,0.8647827506065369,0.10428804904222488,0.49781230092048645,0.1360401064157486,0.9362289309501648,0.705335259437561,-0.9804551601409912,-0.8403092622756958
FIS,0.13986988365650177,-0.2930324375629425,0.866949737071991,0.07763434946537018,0.5206208229064941,0.1114317923784256,0.9691694378852844,0.7348151803016663,-0.985308051109314,-0.8826149702072144
FI,0.1745544821023941,-0.3389796018600464,1.020877718925476,0.10879091918468475,0.5924800038337708,0.14995072782039642,1.1307066679000854,0.8491836786270142,-1.1507785320281982,-1.0408670902252197
FLT,0.14124795794487,-0.33300602436065674,0.9349771738052368,0.12928786873817444,0.5478626489639282,0.15872885286808014,1.0306355953216553,0.7697683572769165,-1.0728970766067505,-0.9113351106643677
FMC,0.16278469562530518,-0.3674268424510956,1.1055017709732056,0.12722636759281158,0.6229910850524902,0.17288373410701752,1.1955475807189941,0.9245350956916809,-1.2061518430709839,-1.0558252334594727
F,0.1523282676935196,-0.27554938197135925,0.8661097884178162,0.07835686206817627,0.49900850653648376,0.12878365814685822,0.9403534531593323,0.7342069149017334,-0.9542334079742432,-0.8537226319313049
FTNT,0.15324068069458008,-0.31006523966789246,0.9290525317192078,0.11952434480190277,0.5441535115242004,0.124602310359478,1.0296608209609985,0.8058190941810608,-1.01997971534729,-0.9508784413337708
FTV,0.03180503472685814,-0.13197843730449677,0.37585198879241943,0.03560296818614006,0.23879575729370117,0.026086680591106415,0.3630431592464447,0.2527846693992615,-0.4201362133026123,-0.2847554385662079
FOXA,0.1532181054353714,-0.26186731457710266,0.7876141667366028,0.09495590627193451,0.46004191040992737,0.11864854395389557,0.8374998569488525,0.6503397822380066,-0.8441190719604492,-0.7556631565093994
FOX,0.1532181054353714,-0.26186731457710266,0.7876141667366028,0.09495590627193451,0.46004191040992737,0.11864854395389557,0.8374998569488525,0.6503397822380066,-0.8441190719604492,-0.7556631565093994
BEN,0.13923688232898712,-0.2837270200252533,0.8595649600028992,0.08065814524888992,0.5167520046234131,0.14541907608509064,0.9064969420433044,0.6947015523910522,-0.9231844544410706,-0.8448689579963684
FCX,0.18952207267284393,-0.33337539434432983,0.952111005783081,0.11393112689256668,0.5719918608665466,0.1551094353199005,1.0729575157165527,0.8340970873832703,-1.0636097192764282,-0.9411948323249817
GRMN,0.19330358505249023,-0.36854109168052673,1.1170965433120728,0.14493831992149353,0.6637939214706421,0.16836683452129364,1.2430753707885742,0.9385431408882141,-1.2658421993255615,-1.14869225025177
IT,0.12527485191822052,-0.25417807698249817,0.7857570648193359,0.09935049712657928,0.46895286440849304,0.12669311463832855,0.8241208791732788,0.6764643788337708,-0.8990105986595154,-0.7800331711769104
GEHC,0.11023752391338348,-0.2483062744140625,0.8095748424530029,0.11787337064743042,0.477541983127594,0.1313817948102951,0.8945455551147461,0.6764483451843262,-0.8943917155265808,-0.8165633678436279
GEN,0.19268307089805603,-0.3574279546737671,1.0615088939666748,0.12603674829006195,0.627784788608551,0.16054373979568481,1.194898009300232,0.9078571796417236,-1.2092816829681396,-1.075467824935913
GNRC,0.1665189564228058,-0.3212045729160309,0.9123659729957581,0.10386446118354797,0.5311766266822815,0.17499125003814697,0.9966402053833008,0.7380834817886353,-1.0203843116760254,-0.9142971038818359
GD,0.14982743561267853,-0.3254980146884918,1.0379865169525146,0.10554379224777222,0.5916244983673096,0.17129333317279816,1.129305362701416,0.855141282081604,-1.150377631187439,-1.0097688436508179
GE,0.1684897392988205,-0.3505972921848297,1.004181981086731,0.11012078076601028,0.5723573565483093,0.15488003194332123,1.1109822988510132,0.8411692976951599,-1.131669282913208,-1.0032051801681519
GIS,0.15514862537384033,-0.28693079948425293,0.8472778797149658,0.09654898196458817,0.49327927827835083,0.12003849446773529,0.9261841773986816,0.7116326093673706,-0.956545889377594,-0.8658957481384277
GM,0.16631850600242615,-0.35484641790390015,1.0866373777389526,0.12722136080265045,0.6366701126098633,0.166080504655838,1.2146790027618408,0.9238790273666382,-1.2306736707687378,-1.083078145980835
GPC,0.16606928408145905,-0.31675782799720764,0.8511367440223694,0.09444188326597214,0.5226646065711975,0.1315201073884964,0.9523113965988159,0.7191884517669678,-0.9647040367126465,-0.8898336887359619
GILD,0.1595700979232788,-0.3096296489238739,0.9522721171379089,0.12271515280008316,0.5424074530601501,0.14733046293258667,1.0401092767715454,0.7919605374336243,-1.06868314743042,-0.9515199661254883
GL,0.2011559158563614,-0.38473692536354065,1.1184443235397339,0.10715845972299576,0.6508591175079346,0.18905694782733917,1.2130115032196045,0.9197892546653748,-1.2365537881851196,-1.0935955047607422
GPN,0.15621551871299744,-0.3163548707962036,1.0051374435424805,0.10979767143726349,0.5754870176315308,0.1668323278427124,1.1156424283981323,0.8321069478988647,-1.144545555114746,-1.0130937099456787
GS,0.17346610128879547,-0.3374040424823761,1.0163332223892212,0.08143022656440735,0.5873323082923889,0.16341671347618103,1.0957481861114502,0.8180464506149292,-1.1099940538406372,-0.9783990383148193
HAL,0.18380671739578247,-0.35012027621269226,1.0956571102142334,0.11697180569171906,0.6483628153800964,0.15917406976222992,1.2069863080978394,0.9298850297927856,-1.2220535278320312,-1.1000804901123047
HIG,0.17414353787899017,-0.3416430950164795,0.9530261158943176,0.08640152961015701,0.561244010925293,0.15001244843006134,1.0700732469558716,0.7689682841300964,-1.075242519378662,-0.9682067036628723
HAS,0.1435350477695465,-0.2974069118499756,0.8966964483261108,0.08076992630958557,0.4991416037082672,0.12993301451206207,0.9701737761497498,0.7437934875488281,-0.9880431890487671,-0.8906505703926086
HCA,0.15994378924369812,-0.31569916009902954,0.9358105063438416,0.09308599680662155,0.5519258379936218,0.15131156146526337,1.0252035856246948,0.7775933742523193,-1.0565416812896729,-0.9354711174964905
PEAK,0.14158962666988373,-0.28271785378456116,0.8797444105148315,0.10081039369106293,0.46329447627067566,0.12717707455158234,0.8850505352020264,0.6757983565330505,-0.9090912342071533,-0.8170952200889587
HSIC,0.15978935360908508,-0.3337903618812561,1.0173625946044922,0.09698697924613953,0.611491322517395,0.16656072437763214,1.1012202501296997,0.8418852090835571,-1.1583894491195679,-1.0409839153289795
HSY,0.15481534600257874,-0.36519739031791687,1.046762466430664,0.12968851625919342,0.6071315407752991,0.15347616374492645,1.1261203289031982,0.8758792877197266,-1.1711901426315308,-1.0284420251846313
HES,0.1261257827281952,-0.22395211458206177,0.7010905742645264,0.08661163598299026,0.43489786982536316,0.12798216938972473,0.7913562655448914,0.610737681388855,-0.7985019087791443,-0.7175265550613403
HPE,0.18988075852394104,-0.41759759187698364,1.2670906782150269,0.17356735467910767,0.7516777515411377,0.1950814127922058,1.425190806388855,1.0613881349563599,-1.4317245483398438,-1.2948253154754639
HLT,0.14815880358219147,-0.3197181224822998,0.9690973162651062,0.1257246732711792,0.5480548739433289,0.13709674775600433,1.0525128841400146,0.7972973585128784,-1.0770734548568726,-0.9666356444358826
HOLX,0.14697366952896118,-0.30752646923065186,1.0131723880767822,0.11864940822124481,0.5670905113220215,0.1695190966129303,1.0561530590057373,0.8702322244644165,-1.094870686531067,-1.0380414724349976
HD,0.15699470043182373,-0.3344106078147888,0.9465487599372864,0.1000128984451294,0.5744346380233765,0.13677433133125305,1.0456050634384155,0.7904771566390991,-1.062272071838379,-0.9567520618438721
HON,0.1114754006266594,-0.28192418813705444,0.8598442673683167,0.09564393758773804,0.5096834301948547,0.13544462621212006,0.9480547308921814,0.7286553978919983,-0.9593777060508728,-0.8551235198974609
HRL,0.1824309527873993,-0.29527026414871216,0.8848081827163696,0.11514563858509064,0.5386338233947754,0.1407988965511322,0.9700524806976318,0.7632591128349304,-0.9840772747993469,-0.9108414649963379
HST,0.1784406453371048,-0.33819615840911865,1.0466408729553223,0.1145312488079071,0.5563058257102966,0.13661521673202515,1.0701377391815186,0.8224092125892639,-1.0898315906524658,-0.9679409861564636
HWM,0.12779459357261658,-0.28690701723098755,0.8824252486228943,0.1277686357498169,0.5087901949882507,0.15935733914375305,0.9337267279624939,0.7358416318893433,-1.0087010860443115,-0.9112160801887512
HPQ,0.15311840176582336,-0.3147197365760803,0.9894216060638428,0.08836756646633148,0.5735881924629211,0.14609761536121368,1.0695136785507202,0.8079209923744202,-1.0773653984069824,-0.9776501655578613
HUBB,0.1691046953201294,-0.32757267355918884,0.9380679726600647,0.10473614931106567,0.5283313393592834,0.15448082983493805,1.0237699747085571,0.7888610363006592,-1.0537679195404053,-0.9600874781608582
HUM,0.21751625835895538,-0.4172000288963318,1.2049574851989746,0.12704111635684967,0.6839233040809631,0.20630140602588654,1.3230395317077637,1.0293290615081787,-1.3641918897628784,-1.20730459690094
HBAN,0.1871626228094101,-0.4264560043811798,1.264054536819458,0.1387118697166443,0.7239685654640198,0.2035076916217804,1.3961528539657593,1.0354971885681152,-1.408450961112976,-1.2479716539382935
HII,0.19223451614379883,-0.35009968280792236,1.0115370750427246,0.10460220277309418,0.588727593421936,0.16415543854236603,1.1200542449951172,0.8371008634567261,-1.1436941623687744,-0.9987103343009949
IBM,0.14042703807353973,-0.32330337166786194,0.95210200548172,0.09580204635858536,0.5722331404685974,0.1733521670103073,1.036694884300232,0.7975189685821533,-1.0627422332763672,-0.9321874380111694
IEX,0.14955919981002808,-0.342983216047287,0.9312576055526733,0.12079846113920212,0.5404963493347168,0.16012316942214966,1.014235019683838,0.8280385136604309,-1.0695546865463257,-0.9544345736503601
IDXX,0.1651281714439392,-0.3301548659801483,1.0165921449661255,0.09981841593980789,0.6044681072235107,0.14577044546604156,1.117570400238037,0.859404444694519,-1.1598237752914429,-1.050795078277588
ITW,0.15189829468727112,-0.3270946145057678,0.9242727756500244,0.12922878563404083,0.5683533549308777,0.18429918587207794,1.0431058406829834,0.8227851390838623,-1.0711761713027954,-0.9766506552696228
ILMN,0.15490804612636566,-0.2995952069759369,0.9353208541870117,0.10475119948387146,0.5321298241615295,0.141166552901268,1.0286519527435303,0.8026768565177917,-1.0410382747650146,-0.9501649141311646
INCY,0.19852694869041443,-0.3892819285392761,1.1175380945205688,0.1637437641620636,0.6586180925369263,0.1707930862903595,1.2154051065444946,0.9571582674980164,-1.2290147542953491,-1.1285171508789062
IR,0.17269687354564667,-0.3673127591609955,1.080683708190918,0.1488809436559677,0.6450001001358032,0.17670013010501862,1.1840873956680298,0.8973638415336609,-1.2198063135147095,-1.0748039484024048
PODD,0.04908447340130806,-0.006894989404827356,0.2843357026576996,-0.03825798258185387,0.10006923228502274,-0.048807818442583084,0.24504826962947845,0.18711426854133606,-0.3894790709018707,-0.31027165055274963
INTC,0.15527522563934326,-0.3329152762889862,0.9578264951705933,0.09339609742164612,0.5665643215179443,0.15983426570892334,1.0594145059585571,0.7967257499694824,-1.0733791589736938,-0.9657958149909973
ICE,0.15244534611701965,-0.320840448141098,0.9368833899497986,0.11186105757951736,0.5646452307701111,0.15336081385612488,1.026079535484314,0.7478651404380798,-1.0336674451828003,-0.9216033816337585
IFF,0.17005400359630585,-0.3492617905139923,1.0272234678268433,0.0994272530078888,0.6295790672302246,0.1849566400051117,1.134300947189331,0.8905978798866272,-1.1512463092803955,-1.038158655166626
IP,0.22083187103271484,-0.4248902201652527,1.302698016166687,0.16347378492355347,0.7191992998123169,0.1972540020942688,1.3979655504226685,1.0768095254898071,-1.4283937215805054,-1.3099877834320068
IPG,0.13834522664546967,-0.25695663690567017,0.8015813827514648,0.08271476626396179,0.4610077440738678,0.1176990270614624,0.8820827603340149,0.6887741088867188,-0.9071518182754517,-0.7999380826950073
INTU,0.1607544869184494,-0.29514479637145996,0.9102137684822083,0.09786435216665268,0.5471511483192444,0.1507837325334549,1.0039232969284058,0.7512961626052856,-1.0195000171661377,-0.900361955165863
ISRG,0.14840441942214966,-0.28455886244773865,0.8523300886154175,0.12335878610610962,0.4886190891265869,0.1497344821691513,0.9113379716873169,0.7092316150665283,-0.9678266048431396,-0.8511472940444946
IVZ,0.18573075532913208,-0.29171282052993774,0.8961412906646729,0.08095217496156693,0.5181881189346313,0.14349976181983948,0.9537384510040283,0.7262592315673828,-0.96476811170578,-0.8834829330444336
INVH,0.13607358932495117,-0.2789062559604645,0.8479117751121521,0.06547513604164124,0.493353933095932,0.1199013739824295,0.8952420949935913,0.6828864216804504,-0.9039934277534485,-0.844212532043457
IQV,0.15541422367095947,-0.2837151288986206,0.8906124234199524,0.09195180982351303,0.5185099840164185,0.14713352918624878,0.9634863138198853,0.7307485938072205,-1.0022002458572388,-0.8918748497962952
IRM,0.16629564762115479,-0.3131672441959381,0.9542630314826965,0.10154693573713303,0.5762052536010742,0.17258235812187195,1.0589420795440674,0.7811101078987122,-1.0715434551239014,-0.9687226414680481
JBHT,0.146722212433815,-0.26708558201789856,0.814316987991333,0.08784141391515732,0.45705926418304443,0.14042653143405914,0.8877325057983398,0.6884332895278931,-0.8973999619483948,-0.8008514046669006
JKHY,0.15577496588230133,-0.3223787844181061,0.9110137820243835,0.09975092113018036,0.5340551733970642,0.13257379829883575,1.0052012205123901,0.7575204372406006,-1.0097938776016235,-0.9241053462028503
J,0.13319550454616547,-0.2649412751197815,0.7596732378005981,0.08195439726114273,0.447081595659256,0.1250375360250473,0.8328750729560852,0.652520477771759,-0.8716441988945007,-0.7776719927787781
JNJ,0.14757467806339264,-0.3172428011894226,0.8929608464241028,0.08904530853033066,0.5293745994567871,0.14535579085350037,0.9588115811347961,0.7171223759651184,-0.9827470183372498,-0.8709024786949158
JCI,0.09710830450057983,-0.26207977533340454,0.7209759950637817,0.07872748374938965,0.44754695892333984,0.1254245936870575,0.8133825063705444,0.6233431100845337,-0.8106271624565125,-0.7443491220474243
JPM,0.12605249881744385,-0.26237794756889343,0.8253788948059082,0.06974940747022629,0.4896344840526581,0.11490936577320099,0.9016151428222656,0.6817277669906616,-0.9168784618377686,-0.8117835521697998
JNPR,0.17766554653644562,-0.3481869101524353,1.0836446285247803,0.1096564456820488,0.6494495868682861,0.16070005297660828,1.1618906259536743,0.9278265833854675,-1.2114347219467163,-1.0807960033416748
K,0.1733207404613495,-0.347987562417984,1.0107495784759521,0.12166934460401535,0.6019772887229919,0.14894938468933105,1.1089636087417603,0.8491457104682922,-1.1375902891159058,-1.0108578205108643
KVUE,0.1664676070213318,-0.29007628560066223,0.9094570279121399,0.10160166025161743,0.545143187046051,0.13530848920345306,1.0047156810760498,0.7557528018951416,-1.0198899507522583,-0.9117184281349182
KDP,0.13640709221363068,-0.21819062530994415,0.6826788783073425,0.10315397381782532,0.4024394750595093,0.08928492665290833,0.7329071164131165,0.5621158480644226,-0.7310981154441833,-0.690912127494812
KEY,0.15054923295974731,-0.318649023771286,0.9083713889122009,0.10542058944702148,0.5342569351196289,0.14297524094581604,1.0139240026474,0.7431204319000244,-0.9965798854827881,-0.8837006092071533
KEYS,0.13120011985301971,-0.28494277596473694,0.8601483702659607,0.13894926011562347,0.494269460439682,0.13768887519836426,0.9567014575004578,0.728573203086853,-0.9632213711738586,-0.8854050636291504
KMB,0.17645792663097382,-0.3384355306625366,1.0358394384384155,0.13476435840129852,0.6345732808113098,0.17738109827041626,1.0972970724105835,0.8929813504219055,-1.156760811805725,-1.061177134513855
KIM,0.1374962329864502,-0.30116385221481323,0.8907361626625061,0.09652843326330185,0.4679360091686249,0.11205561459064484,0.8992516994476318,0.6972295641899109,-0.915475606918335,-0.8281335234642029
KMI,0.18162207305431366,-0.38292473554611206,1.173149824142456,0.142445370554924,0.663207471370697,0.18545030057430267,1.2299256324768066,1.0004161596298218,-1.2874846458435059,-1.143836498260498
KLAC,0.14996854960918427,-0.3170035779476166,0.9527823328971863,0.13199953734874725,0.5593146681785583,0.13813269138336182,1.0527762174606323,0.8109183311462402,-1.0764704942703247,-0.9914300441741943
KHC,0.19523397088050842,-0.3874703645706177,1.1027603149414062,0.15701988339424133,0.6479464769363403,0.15118376910686493,1.2041373252868652,0.9329089522361755,-1.2181438207626343,-1.1154825687408447
KR,0.20114699006080627,-0.3927743136882782,1.1768293380737305,0.14571788907051086,0.7169690132141113,0.16624566912651062,1.3279578685760498,1.004071831703186,-1.3324377536773682,-1.2083264589309692
LHX,0.14211177825927734,-0.27813875675201416,0.9288161396980286,0.1271706372499466,0.5628980398178101,0.14921705424785614,1.017540454864502,0.7901653051376343,-1.052781343460083,-0.9380270838737488
LH,0.15488381683826447,-0.3215745687484741,0.9131038188934326,0.10236843675374985,0.5386355519294739,0.13322973251342773,0.9969967603683472,0.7758430242538452,-1.02555513381958,-0.8994700908660889
LRCX,0.13236279785633087,-0.329108327627182,0.9742359519004822,0.13713590800762177,0.5465290546417236,0.15788134932518005,1.0468097925186157,0.8224584460258484,-1.0982266664505005,-0.9835491180419922
LW,0.1919853538274765,-0.364818274974823,1.1292577981948853,0.14635153114795685,0.6707735657691956,0.1689201444387436,1.214860439300537,0.9361997246742249,-1.2377499341964722,-1.153584361076355
LVS,0.17227526009082794,-0.33806124329566956,1.0202374458312988,0.14390504360198975,0.5889668464660645,0.14754529297351837,1.1516635417938232,0.8675916790962219,-1.1347565650939941,-1.02773916721344
LDOS,0.1297076940536499,-0.26809555292129517,0.8260577917098999,0.09203365445137024,0.4823722839355469,0.12366592139005661,0.8834054470062256,0.6918951869010925,-0.9091392159461975,-0.8185922503471375
LEN,0.15697546303272247,-0.3573276996612549,1.0156850814819336,0.14635862410068512,0.6030592918395996,0.15935218334197998,1.1155033111572266,0.8268385529518127,-1.1412039995193481,-1.0072624683380127
LIN,0.1345166265964508,-0.2890530824661255,0.8072956204414368,0.0874931737780571,0.4853447675704956,0.1342412233352661,0.8937076330184937,0.683310329914093,-0.9342449903488159,-0.8264474272727966
LYV,0.1516025811433792,-0.3371351659297943,0.970042884349823,0.11275660246610641,0.605174720287323,0.18438071012496948,1.1188769340515137,0.8575941920280457,-1.1237287521362305,-0.9879582524299622
LKQ,0.1278189867734909,-0.3078934848308563,0.8632077574729919,0.11470220237970352,0.507419228553772,0.14794467389583588,0.9274308085441589,0.727594256401062,-0.9879859089851379,-0.8699414134025574
LMT,0.13286586105823517,-0.2837696075439453,0.808407187461853,0.07504934072494507,0.4863217771053314,0.110350601375103,0.8816819787025452,0.6855300068855286,-0.8895255923271179,-0.7930520176887512
L,0.1756778508424759,-0.33518391847610474,1.013798713684082,0.07799960672855377,0.607335090637207,0.1693478375673294,1.0734115839004517,0.8426020741462708,-1.1134836673736572,-1.0052634477615356
LOW,0.18666109442710876,-0.3735353350639343,1.0569621324539185,0.12161102890968323,0.6236253380775452,0.15213030576705933,1.1533300876617432,0.8627396821975708,-1.1655747890472412,-1.0356934070587158
LULU,0.1260329782962799,-0.2938360571861267,0.8480600714683533,0.08735155314207077,0.5218458771705627,0.11679835617542267,0.9299397468566895,0.7058520913124084,-0.9207097291946411,-0.8568763136863708
LYB,0.18006554245948792,-0.36788931488990784,1.106446623802185,0.1269405335187912,0.6318533420562744,0.1715405285358429,1.2259366512298584,0.9326721429824829,-1.207016944885254,-1.114412546157837
MTB,0.15739932656288147,-0.3357415795326233,1.0262869596481323,0.11178421974182129,0.5966368913650513,0.1607273668050766,1.104143738746643,0.8317536115646362,-1.1240237951278687,-0.9670299887657166
MRO,0.15332812070846558,-0.2827363908290863,0.8836314082145691,0.08081761747598648,0.533419668674469,0.14298884570598602,0.9730554223060608,0.7491427063941956,-0.9388888478279114,-0.8969946503639221
MPC,0.1553049385547638,-0.2893888056278229,0.9227827191352844,0.10070353746414185,0.5326226949691772,0.1395311951637268,0.9930776953697205,0.7714811563491821,-1.011922001838684,-0.9168145656585693
MKTX,0.16153715550899506,-0.30492889881134033,0.8645593523979187,0.08896338939666748,0.50115966796875,0.13436605036258698,0.9469798803329468,0.7121403217315674,-0.9525293707847595,-0.8681776523590088
MAR,0.19331462681293488,-0.41006648540496826,1.1903668642044067,0.13546660542488098,0.6864492893218994,0.19219970703125,1.3091349601745605,1.005439043045044,-1.3244649171829224,-1.1991182565689087
MMC,0.1670904904603958,-0.33813056349754333,1.0049852132797241,0.08450859785079956,0.6001279950141907,0.1692357063293457,1.1067566871643066,0.8492542505264282,-1.1162046194076538,-0.9955627918243408
MLM,0.13690374791622162,-0.28766968846321106,0.8236108422279358,0.10260610282421112,0.4776044189929962,0.1389271467924118,0.9132788181304932,0.6945814490318298,-0.927314043045044,-0.8448194861412048
MAS,0.1742323786020279,-0.3520556688308716,1.0164679288864136,0.10248475521802902,0.5920124053955078,0.16696502268314362,1.099423885345459,0.8341781497001648,-1.1173020601272583,-0.978636622428894
MA,0.11236365139484406,-0.21579229831695557,0.6365636587142944,0.07710181176662445,0.3774683475494385,0.10739652067422867,0.7148007750511169,0.5411762595176697,-0.74262934923172,-0.6578733325004578
MTCH,0.18949103355407715,-0.3805290162563324,1.1288728713989258,0.1104993149638176,0.6527137756347656,0.17523103952407837,1.2374234199523926,0.9358423352241516,-1.2531936168670654,-1.131093144416809
MKC,0.019192423671483994,-0.11011373996734619,0.46172887086868286,0.0051728906109929085,0.25505053997039795,0.02843378856778145,0.43612706661224365,0.3130827844142914,-0.45898503065109253,-0.34404581785202026
MCD,0.15900172293186188,-0.33897754549980164,0.9938765168190002,0.13817541301250458,0.5932656526565552,0.15436513721942902,1.0932555198669434,0.847770094871521,-1.1063863039016724,-0.9907259345054626
MCK,0.13244396448135376,-0.2840287387371063,0.8600468039512634,0.09271381795406342,0.49385929107666016,0.12751810252666473,0.9339278340339661,0.7440147995948792,-0.958558976650238,-0.860344648361206
MDT,0.16433367133140564,-0.2985592186450958,0.916818380355835,0.11255481094121933,0.5551376342773438,0.15012270212173462,1.0194971561431885,0.7706039547920227,-0.991801917552948,-0.9218690395355225
MRK,0.18487396836280823,-0.3570358455181122,1.0391955375671387,0.12791529297828674,0.6095229983329773,0.17242614924907684,1.14365553855896,0.8479465842247009,-1.1815370321273804,-1.0509742498397827
META,0.14765320718288422,-0.31195053458213806,0.9408887624740601,0.09533654898405075,0.5576454997062683,0.15325942635536194,1.041841745376587,0.7870763540267944,-1.0468478202819824,-0.95145583152771
MET,0.17320947349071503,-0.35566624999046326,1.0090686082839966,0.10596729069948196,0.5825932621955872,0.16914640367031097,1.1300376653671265,0.8478779792785645,-1.1494077444076538,-1.0070542097091675
MTD,0.12735527753829956,-0.26639965176582336,0.8098706007003784,0.08663791418075562,0.480929970741272,0.12130959331989288,0.8707727193832397,0.6672582626342773,-0.903743326663971,-0.8164119720458984
MGM,0.1312258243560791,-0.24896001815795898,0.7967121601104736,0.09982343763113022,0.45401355624198914,0.1337663233280182,0.8579707145690918,0.6719282269477844,-0.8982592225074768,-0.7878026366233826
MCHP,0.12643617391586304,-0.333488792181015,0.9120165705680847,0.09176509827375412,0.5192133188247681,0.12977375090122223,0.9848470687866211,0.8156156539916992,-1.02083420753479,-0.9307308793067932
MU,0.1275525689125061,-0.2656925618648529,0.797089159488678,0.07103786617517471,0.44706371426582336,0.13594013452529907,0.8274137377738953,0.6260108351707458,-0.8554602265357971,-0.7772391438484192
MSFT,0.14243900775909424,-0.3008142411708832,0.8821029663085938,0.07508092373609543,0.5154027342796326,0.14153341948986053,0.9673458337783813,0.7305474281311035,-0.9921561479568481,-0.8870931267738342
MAA,0.11847362667322159,-0.28236719965934753,0.900920033454895,0.10789790004491806,0.48850899934768677,0.11491457372903824,0.9198958277702332,0.7120005488395691,-0.9291889667510986,-0.7982761263847351
MRNA,0.0,0.0,0.0,0.0,0.0,0.0,0.0,0.0,0.0,0.0
MHK,0.15222670137882233,-0.28964605927467346,0.8784622550010681,0.1059187650680542,0.5084412097930908,0.1547459214925766,0.9669832587242126,0.7154736518859863,-0.983483076095581,-0.8541679978370667
MOH,0.16846008598804474,-0.3377566933631897,1.0850988626480103,0.12112157046794891,0.6431333422660828,0.17581693828105927,1.1665939092636108,0.9179127812385559,-1.2251023054122925,-1.0719010829925537
TAP,0.13554029166698456,-0.28943777084350586,0.9802202582359314,0.10280264914035797,0.5496084094047546,0.11637557297945023,1.0603047609329224,0.8204577565193176,-1.0323110818862915,-0.9363144040107727
MDLZ,0.17104414105415344,-0.3304079473018646,1.0116143226623535,0.10497210174798965,0.6055246591567993,0.16219750046730042,1.1129997968673706,0.8391347527503967,-1.1264647245407104,-1.0062490701675415
MPWR,0.18074311316013336,-0.36802005767822266,1.0794612169265747,0.12632422149181366,0.6167944073677063,0.1621829718351364,1.1956170797348022,0.9225268959999084,-1.2034002542495728,-1.0700974464416504
MNST,0.18533457815647125,-0.33707401156425476,1.03904128074646,0.13143137097358704,0.6127225756645203,0.14577040076255798,1.1508221626281738,0.8893654346466064,-1.1719424724578857,-1.034715175628662
MCO,0.21143381297588348,-0.37834614515304565,1.0878102779388428,0.13098208606243134,0.6378530263900757,0.18415632843971252,1.222090244293213,0.9115179181098938,-1.259610652923584,-1.1176408529281616
MS,0.18506483733654022,-0.3303993344306946,1.005800724029541,0.0976947546005249,0.5772460699081421,0.17515119910240173,1.0988727807998657,0.8275838494300842,-1.1228735446929932,-0.9739088416099548
MOS,0.18620191514492035,-0.40429019927978516,1.1200648546218872,0.1567068248987198,0.6521993279457092,0.20561915636062622,1.2439380884170532,0.9395627975463867,-1.2195532321929932,-1.0905230045318604
MSI,0.15906287729740143,-0.2928459048271179,0.8873462677001953,0.1079975962638855,0.5300375819206238,0.13545037806034088,0.9662358164787292,0.7604100108146667,-1.016453742980957,-0.9198310375213623
MSCI,0.1420307755470276,-0.29583942890167236,0.8688159584999084,0.09680157899856567,0.5290428400039673,0.16533797979354858,0.918321967124939,0.715830385684967,-0.938162624835968,-0.8535205125808716
NDAQ,0.16500531136989594,-0.3058519959449768,0.9656732678413391,0.09572328627109528,0.5413709878921509,0.17395463585853577,0.9721766710281372,0.7365113496780396,-1.024174451828003,-0.8908061981201172
NTAP,0.17828251421451569,-0.3371679484844208,1.0156664848327637,0.09775714576244354,0.5857495665550232,0.16755393147468567,1.1322146654129028,0.8336243033409119,-1.1150118112564087,-1.0149657726287842
NFLX,0.1826971024274826,-0.33586832880973816,0.9795594811439514,0.1312982589006424,0.5690184235572815,0.1732914000749588,1.0739712715148926,0.8455309271812439,-1.0857605934143066,-1.0013614892959595
NEM,0.13214412331581116,-0.22372964024543762,0.7022773027420044,0.08459518104791641,0.42436695098876953,0.13631436228752136,0.8084402084350586,0.6205431222915649,-0.7805061340332031,-0.7252518534660339
NWSA,0.1264924705028534,-0.24131233990192413,0.7228811979293823,0.06606689840555191,0.4142526686191559,0.1280747652053833,0.7571153044700623,0.6012738943099976,-0.7949419617652893,-0.7041376233100891
NWS,0.1264924705028534,-0.24131233990192413,0.7228811979293823,0.06606689840555191,0.4142526686191559,0.1280747652053833,0.7571153044700623,0.6012738943099976,-0.7949419617652893,-0.7041376233100891
NEE,0.17393463850021362,-0.3399582803249359,1.0058610439300537,0.1185874193906784,0.5839000344276428,0.16749688982963562,1.1050235033035278,0.8500460386276245,-1.1545772552490234,-1.0120649337768555
NKE,0.13289405405521393,-0.31563928723335266,0.9074676036834717,0.08292321860790253,0.5423047542572021,0.14500215649604797,1.012219786643982,0.776100754737854,-1.0261234045028687,-0.9228804707527161
NI,0.17576798796653748,-0.3620211184024811,1.1134365797042847,0.15365591645240784,0.615729033946991,0.17058689892292023,1.192388653755188,0.9023800492286682,-1.2340834140777588,-1.075082540512085
NDSN,0.14108088612556458,-0.3232405483722687,1.0060287714004517,0.1282336562871933,0.5783935189247131,0.15486684441566467,1.0820140838623047,0.8457257747650146,-1.1121277809143066,-1.0203943252563477
NSC,0.14646399021148682,-0.3076879382133484,0.9032341837882996,0.11459234356880188,0.5320934653282166,0.11446286737918854,0.9854594469070435,0.735659658908844,-0.9427079558372498,-0.8688448667526245
NTRS,0.14102502167224884,-0.3192514479160309,0.8830462694168091,0.09088471531867981,0.5330350399017334,0.1333666294813156,0.9612376689910889,0.7473780512809753,-0.990894615650177,-0.8721293807029724
NOC,0.13235467672348022,-0.3331594169139862,0.9844964146614075,0.10538217425346375,0.5786078572273254,0.15762890875339508,1.0844677686691284,0.8212453722953796,-1.1029120683670044,-0.9921620488166809
NCLH,0.1350686401128769,-0.3268890082836151,0.8911049962043762,0.08804967254400253,0.5306857824325562,0.12554703652858734,0.9254873991012573,0.7193962335586548,-0.9577705264091492,-0.869223952293396
NRG,0.15144269168376923,-0.2973403334617615,0.8553345799446106,0.09017834812402725,0.5026151537895203,0.153442844748497,0.9386889338493347,0.7072106003761292,-0.967892587184906,-0.8551390767097473
NUE,0.14710251986980438,-0.32399582862854004,0.9175489544868469,0.13422058522701263,0.5295845866203308,0.14919006824493408,1.011755108833313,0.774476945400238,-1.0144728422164917,-0.894647479057312
NVDA,0.12191403657197952,-0.24162885546684265,0.7195368409156799,0.08328206092119217,0.41773831844329834,0.10880529880523682,0.782312273979187,0.5859474539756775,-0.8003913164138794,-0.7178402543067932
NVR,0.1878025084733963,-0.35510557889938354,1.041869044303894,0.11455044150352478,0.595176100730896,0.16376526653766632,1.1336324214935303,0.8461894989013672,-1.1391756534576416,-1.0073044300079346
NXPI,0.1521470695734024,-0.3130953013896942,0.8902798891067505,0.1019614189863205,0.5035345554351807,0.11921358108520508,0.9641937613487244,0.7361812591552734,-0.9865391254425049,-0.9053789377212524
ORLY,0.16627086699008942,-0.29545292258262634,0.8077147006988525,0.09798900783061981,0.4990400969982147,0.11830853670835495,0.9141781330108643,0.7011497616767883,-0.9232951402664185,-0.8387187123298645
OXY,0.1644657999277115,-0.3291517496109009,0.9842204451560974,0.11267456412315369,0.5731176733970642,0.14533783495426178,1.0817769765853882,0.8221884369850159,-1.1136587858200073,-0.9590393304824829
ODFL,0.16190579533576965,-0.28011396527290344,0.8158445358276367,0.10722418874502182,0.4611298143863678,0.10270725935697556,0.906559944152832,0.7004574537277222,-0.931213915348053,-0.8525972962379456
OMC,0.19445502758026123,-0.3478197753429413,1.0818394422531128,0.10939048230648041,0.6454071402549744,0.16628015041351318,1.1558570861816406,0.8704010248184204,-1.1809786558151245,-1.050580382347107
ON,0.14735756814479828,-0.3058357536792755,0.8575152158737183,0.09734534472227097,0.4966913163661957,0.1514197587966919,0.9149741530418396,0.7273662090301514,-0.9476216435432434,-0.8622150421142578
OKE,0.16600872576236725,-0.33061861991882324,0.9863855242729187,0.1284925490617752,0.5655420422554016,0.18553940951824188,1.0711430311203003,0.8177618384361267,-1.0957677364349365,-0.9690209627151489
ORCL,0.18214672803878784,-0.340451180934906,1.0187376737594604,0.08758996427059174,0.6106804609298706,0.14256907999515533,1.1334751844406128,0.8424304127693176,-1.1527197360992432,-1.0166027545928955
OTIS,0.1706310212612152,-0.33825239539146423,0.9923644065856934,0.14107003808021545,0.5622498989105225,0.133527010679245,1.106777548789978,0.8824699521064758,-1.128009557723999,-1.019138216972351
PCAR,0.19034819304943085,-0.3623385727405548,1.0595476627349854,0.12416165322065353,0.5957222580909729,0.15923167765140533,1.1378806829452515,0.8557460904121399,-1.1674573421478271,-1.0475623607635498
PKG,0.17628546059131622,-0.36891597509384155,1.088446855545044,0.14592386782169342,0.6300797462463379,0.18192839622497559,1.1899992227554321,0.9129101634025574,-1.2059177160263062,-1.077863335609436
PANW,0.14274094998836517,-0.2500716745853424,0.8023093938827515,0.09033551067113876,0.47219860553741455,0.12353263050317764,0.8880436420440674,0.6766864061355591,-0.8868235945701599,-0.8300910592079163
PARA,0.14827191829681396,-0.2917579710483551,0.8664445877075195,0.09837181121110916,0.5152279734611511,0.13076414167881012,0.934981107711792,0.7233523726463318,-0.9512287974357605,-0.8603377938270569
PH,0.13215620815753937,-0.2862165570259094,0.8682590126991272,0.14812758564949036,0.5060598850250244,0.11751972138881683,0.9609186053276062,0.7375983595848083,-0.9830092787742615,-0.8680859804153442
PAYX,0.1683606505393982,-0.320799857378006,0.9357167482376099,0.09131898730993271,0.5471455454826355,0.16304033994674683,1.0142649412155151,0.7646933197975159,-1.029645323753357,-0.941690981388092
PAYC,0.14543409645557404,-0.3277260959148407,0.9181574583053589,0.0967874750494957,0.546050488948822,0.1528576761484146,1.0095564126968384,0.7530672550201416,-1.024091124534607,-0.9359563589096069
PYPL,0.1549198478460312,-0.29212766885757446,0.856253981590271,0.10983934998512268,0.49549391865730286,0.13360589742660522,0.9154382944107056,0.7129252552986145,-0.9412049651145935,-0.8299196362495422
PNR,0.1574244499206543,-0.2949553430080414,0.8098400831222534,0.10397166013717651,0.4582788050174713,0.13051572442054749,0.9144605994224548,0.7085978388786316,-0.8999235033988953,-0.8338673114776611
PEP,0.15918070077896118,-0.3003615438938141,0.9408836364746094,0.09831377118825912,0.5670048594474792,0.1353096216917038,1.0025960206985474,0.7890055775642395,-1.0258687734603882,-0.9164864420890808
PFE,0.0,0.0,0.0,0.0,0.0,0.0,0.0,0.0,0.0,0.0
PCG,0.10996714234352112,-0.2498808056116104,0.8400313854217529,0.11744627356529236,0.4780775308609009,0.1482224315404892,0.9197320342063904,0.7099834084510803,-0.9361867308616638,-0.8188724517822266
PM,0.17561626434326172,-0.31620684266090393,0.9622108936309814,0.12515318393707275,0.5567494630813599,0.15672631561756134,1.0107898712158203,0.792241096496582,-1.0494043827056885,-0.9478830099105835
PSX,0.15206986665725708,-0.3154904544353485,0.8975023031234741,0.10480301082134247,0.5300922989845276,0.14011156558990479,0.9816766381263733,0.7479056715965271,-0.9910033941268921,-0.9065786600112915
PNW,0.17615367472171783,-0.3325169086456299,0.9600971937179565,0.09958919137716293,0.5599831342697144,0.15376301109790802,1.0359270572662354,0.8117711544036865,-1.059664249420166,-0.9516342282295227
PXD,0.159288227558136,-0.31392157077789307,0.9145997762680054,0.11377886682748795,0.5482180118560791,0.14663568139076233,1.0247178077697754,0.7940213680267334,-1.0255659818649292,-0.9203425645828247
PNC,0.15852774679660797,-0.34217551350593567,0.9763514995574951,0.10917230695486069,0.5773755311965942,0.1537540853023529,1.080839991569519,0.8061272501945496,-1.098874568939209,-0.9625881910324097
POOL,0.17510537803173065,-0.39380943775177,1.1472244262695312,0.12955492734909058,0.685823380947113,0.18931254744529724,1.2699487209320068,1.0095012187957764,-1.3166502714157104,-1.1595371961593628
PPG,0.16426728665828705,-0.31805768609046936,0.888734757900238,0.10419372469186783,0.54702228307724,0.15225252509117126,0.989993155002594,0.7597106099128723,-1.0050013065338135,-0.900563657283783
PPL,0.1600673943758011,-0.3835738003253937,1.1621559858322144,0.0954039916396141,0.675455629825592,0.20747749507427216,1.2227963209152222,0.9439169764518738,-1.2399437427520752,-1.116148591041565
PFG,0.20016054809093475,-0.40688276290893555,1.1501988172531128,0.12317059189081192,0.6480030417442322,0.16194765269756317,1.2843843698501587,0.9513339400291443,-1.296526551246643,-1.1391924619674683
PG,0.1329321563243866,-0.30133968591690063,0.8956733345985413,0.0878206193447113,0.5466578602790833,0.14491505920886993,0.9706469774246216,0.7887336015701294,-1.0181758403778076,-0.8981808423995972
PGR,0.19313117861747742,-0.376850962638855,1.084558367729187,0.10733393579721451,0.6103699207305908,0.16693219542503357,1.1975611448287964,0.9308318495750427,-1.2297182083129883,-1.0870800018310547
PLD,0.14680182933807373,-0.3125569820404053,0.9057478904724121,0.12014636397361755,0.5163164734840393,0.13363397121429443,0.9579634070396423,0.7376208305358887,-0.9838072657585144,-0.87949538230896
PRU,0.17865659296512604,-0.38076260685920715,1.0582014322280884,0.12132401019334793,0.6183649897575378,0.1729167103767395,1.1768527030944824,0.8716251850128174,-1.2104684114456177,-1.051084280014038
PEG,0.15492261946201324,-0.32196328043937683,0.9708137512207031,0.08642882108688354,0.5675432085990906,0.14937825500965118,1.0436917543411255,0.815557062625885,-1.0582455396652222,-0.9534868597984314
PTC,0.16607457399368286,-0.3160119354724884,0.9901424050331116,0.08064307272434235,0.5774961113929749,0.16369998455047607,1.088186502456665,0.8176884651184082,-1.106078863143921,-0.9982433319091797
PSA,0.1456274837255478,-0.3097580075263977,1.016237735748291,0.11698019504547119,0.584106981754303,0.16538174450397491,1.0491082668304443,0.8360169529914856,-1.071101427078247,-0.9826496243476868
PHM,0.1773531436920166,-0.37646204233169556,1.1263784170150757,0.1614849865436554,0.6515265703201294,0.1619725078344345,1.274807333946228,0.9311421513557434,-1.2807520627975464,-1.1386215686798096
QRVO,0.1402292400598526,-0.3163956105709076,0.905872642993927,0.11927048861980438,0.5152115225791931,0.11179482936859131,0.9831719994544983,0.7634292840957642,-0.995552122592926,-0.9038823246955872
PWR,0.16490386426448822,-0.3134278655052185,0.9197359681129456,0.11743442714214325,0.5429391860961914,0.15878108143806458,1.0245541334152222,0.7861899733543396,-1.074694037437439,-0.9318589568138123
QCOM,0.14500537514686584,-0.32467734813690186,0.980505645275116,0.08788011968135834,0.5714799761772156,0.1622953861951828,1.0976650714874268,0.8303975462913513,-1.0877931118011475,-0.9969606995582581
DGX,0.1472391039133072,-0.32190755009651184,0.9332109093666077,0.12232460081577301,0.5331913232803345,0.15298841893672943,1.0354125499725342,0.7575783729553223,-1.0344268083572388,-0.8880258798599243
RL,0.16795647144317627,-0.31805136799812317,0.9903386235237122,0.09587672352790833,0.5845931768417358,0.16358384490013123,1.0597957372665405,0.8296270370483398,-1.0705821514129639,-0.9901956915855408
RJF,0.1510975956916809,-0.30182138085365295,0.9173454642295837,0.08740199357271194,0.5428113341331482,0.13537944853305817,0.9877350926399231,0.7481775879859924,-1.0309778451919556,-0.9083806276321411
RTX,0.14639107882976532,-0.2993186116218567,0.9218895435333252,0.10336471349000931,0.5158766508102417,0.14777997136116028,0.9900550842285156,0.7708145380020142,-1.0235248804092407,-0.9128033518791199
O,0.13531328737735748,-0.3167799711227417,1.0219709873199463,0.13093070685863495,0.5665614604949951,0.13105736672878265,1.048880696296692,0.7912316918373108,-1.0679084062576294,-0.9374930262565613
REG,0.17269645631313324,-0.3165725767612457,0.930115282535553,0.11625869572162628,0.5133357048034668,0.1345154494047165,0.9566676020622253,0.7464840412139893,-0.992598831653595,-0.9057199954986572
REGN,0.19431740045547485,-0.3625994026660919,1.129096269607544,0.12496186792850494,0.6320735812187195,0.186747744679451,1.1938791275024414,0.9265684485435486,-1.2244763374328613,-1.1148924827575684
RF,0.1824907511472702,-0.36280250549316406,1.035555124282837,0.10935135185718536,0.6065372824668884,0.14090830087661743,1.1358071565628052,0.8556011915206909,-1.1505593061447144,-1.0157452821731567
RSG,0.209309920668602,-0.36422520875930786,1.0516215562820435,0.10344352573156357,0.5878515243530273,0.16235385835170746,1.1393309831619263,0.8581495881080627,-1.1849526166915894,-1.0581996440887451
RMD,0.12243688851594925,-0.29633280634880066,0.8754922151565552,0.08807263523340225,0.5126459002494812,0.1349751204252243,0.9287168979644775,0.7684643864631653,-0.9767166972160339,-0.8769934773445129
RVTY,0.19111362099647522,-0.30297961831092834,0.9151386618614197,0.11036209762096405,0.5470252633094788,0.15521103143692017,1.0108436346054077,0.7668901681900024,-1.0379951000213623,-0.9045615792274475
RHI,0.15133102238178253,-0.2725514769554138,0.8183928728103638,0.09529386460781097,0.4989177882671356,0.1528531014919281,0.897986650466919,0.699714183807373,-0.900700032711029,-0.8350831866264343
ROK,0.21788319945335388,-0.3729846179485321,1.1348727941513062,0.14300943911075592,0.6745594143867493,0.18693891167640686,1.2422515153884888,0.9368058443069458,-1.311255693435669,-1.15916907787323
ROL,0.15625214576721191,-0.29090481996536255,0.884382963180542,0.13445807993412018,0.5000497102737427,0.11005952209234238,0.9786158800125122,0.7510448098182678,-0.980899453163147,-0.8990525007247925
ROP,0.16915316879749298,-0.31963402032852173,0.9966233968734741,0.12502196431159973,0.5993731617927551,0.17860665917396545,1.0798745155334473,0.8168838620185852,-1.1282821893692017,-0.9925349950790405
ROST,0.15690769255161285,-0.30245527625083923,0.916869044303894,0.0961897149682045,0.5397478938102722,0.12240425497293472,0.9739421010017395,0.7434549927711487,-0.9902583360671997,-0.8800406455993652
RCL,0.06701786071062088,-0.2020396888256073,0.40118467807769775,0.13611137866973877,0.20265531539916992,0.04147593304514885,0.34039250016212463,0.28887850046157837,-0.473540723323822,-0.29782605171203613
SPGI,0.15787115693092346,-0.2820586860179901,0.8716733455657959,0.09010476619005203,0.509232759475708,0.1456196904182434,0.9321897029876709,0.6992915868759155,-0.9844940304756165,-0.8684502243995667
CRM,0.1559416502714157,-0.2845650613307953,0.8810439705848694,0.08233334869146347,0.5090174078941345,0.1356024444103241,0.9430575966835022,0.7169630527496338,-0.9781630039215088,-0.8830846548080444
SBAC,0.16867922246456146,-0.32596355676651,0.9877762794494629,0.10788837820291519,0.5478379130363464,0.12298142164945602,0.9913703799247742,0.7938287854194641,-1.0521206855773926,-0.8954848647117615
SLB,0.21465344727039337,-0.42588329315185547,1.2585816383361816,0.10116717219352722,0.764919102191925,0.19362019002437592,1.4031329154968262,1.061638355255127,-1.4488612413406372,-1.2821882963180542
STX,0.15703611075878143,-0.3420743942260742,1.0598785877227783,0.11349878460168839,0.6227136254310608,0.164140984416008,1.1865648031234741,0.8945862650871277,-1.1995137929916382,-1.094527006149292
SEE,0.1449931263923645,-0.2930416762828827,0.8628696203231812,0.10366324335336685,0.4970046579837799,0.13541099429130554,0.9451630711555481,0.7364689111709595,-0.9781438112258911,-0.8710892200469971
SRE,0.1434624344110489,-0.3291339874267578,1.0498796701431274,0.15058854222297668,0.5764665007591248,0.1611928641796112,1.1186624765396118,0.8558155298233032,-1.1354403495788574,-1.0165295600891113
NOW,0.16530616581439972,-0.2918887138366699,0.8578678369522095,0.09321369230747223,0.5098523497581482,0.16323056817054749,0.9409778118133545,0.6958420276641846,-0.9564701914787292,-0.8692559003829956
SHW,0.16228406131267548,-0.3314415216445923,0.945332944393158,0.1296582967042923,0.5196133852005005,0.14544250071048737,1.0130170583724976,0.7478587031364441,-1.0501282215118408,-0.9312242865562439
SPG,0.15442517399787903,-0.3319965600967407,0.9637377262115479,0.09423297643661499,0.5364667773246765,0.12677252292633057,0.9988285303115845,0.7548342943191528,-1.008421540260315,-0.9018304944038391
SWKS,0.195743128657341,-0.3873857259750366,1.203587293624878,0.14912055432796478,0.6815242767333984,0.18672019243240356,1.3241780996322632,0.9911832809448242,-1.332741141319275,-1.1947492361068726
SJM,0.18124771118164062,-0.34966105222702026,0.9825072288513184,0.1176929920911789,0.5957150459289551,0.15860439836978912,1.085904836654663,0.8399251103401184,-1.0952757596969604,-1.0029962062835693
SNA,0.13041386008262634,-0.2652333676815033,0.7749084234237671,0.09471683204174042,0.45497897267341614,0.12367596477270126,0.8746036291122437,0.7083225846290588,-0.8954479098320007,-0.8548557758331299
SEDG,0.022045915946364403,-0.13292673230171204,0.3964254558086395,0.060957811772823334,0.23990467190742493,0.058258820325136185,0.42566022276878357,0.2832501530647278,-0.4423348307609558,-0.38798993825912476
SO,0.15004198253154755,-0.31818708777427673,0.979917585849762,0.12019290775060654,0.5385182499885559,0.13879874348640442,1.059232473373413,0.789390504360199,-1.0708824396133423,-0.9595326781272888
LUV,0.1495625525712967,-0.31505683064460754,0.9537501931190491,0.09966106712818146,0.5643320679664612,0.15606555342674255,1.0468357801437378,0.7812777757644653,-1.0681108236312866,-0.9279574155807495
SWK,0.1552809476852417,-0.28370925784111023,0.7912578582763672,0.09553086012601852,0.47659409046173096,0.1381930410861969,0.879187285900116,0.6578235626220703,-0.8967120051383972,-0.7930058836936951
SBUX,0.16747581958770752,-0.3673790395259857,1.0739256143569946,0.09281094372272491,0.6501647233963013,0.15522146224975586,1.1743974685668945,0.9260083436965942,-1.1637449264526367,-1.0682053565979004
STT,0.1500413864850998,-0.3198741376399994,0.9259021878242493,0.09759071469306946,0.5360141396522522,0.14596988260746002,1.0016571283340454,0.7553834319114685,-1.0381191968917847,-0.8994570374488831
STLD,0.16054667532444,-0.24784961342811584,0.6507477164268494,0.11116748303174973,0.394185870885849,0.12646526098251343,0.7358793020248413,0.5880869626998901,-0.7589021325111389,-0.6632122993469238
STE,0.12035561352968216,-0.27011820673942566,0.8131464123725891,0.11515318602323532,0.4850866496562958,0.12820038199424744,0.8977472186088562,0.6748391389846802,-0.9131374359130859,-0.8257391452789307
SYK,0.14498552680015564,-0.3306802213191986,1.0321787595748901,0.15470266342163086,0.6264733672142029,0.18792033195495605,1.1158998012542725,0.9177555441856384,-1.1776697635650635,-1.0682374238967896
SYF,0.18731427192687988,-0.36578890681266785,1.0942574739456177,0.10004063695669174,0.632508397102356,0.1648413985967636,1.1787524223327637,0.8800893425941467,-1.2011455297470093,-1.0751365423202515
SNPS,0.15207155048847198,-0.3115544319152832,0.9013620018959045,0.09818814694881439,0.498508095741272,0.15180572867393494,0.9639083743095398,0.7618131637573242,-1.0040948390960693,-0.9289690852165222
SYY,0.14861048758029938,-0.32228127121925354,0.9546018242835999,0.1058344841003418,0.5709892511367798,0.1407550424337387,1.0353789329528809,0.8016753792762756,-1.061353325843811,-0.9485026597976685
TMUS,0.12323451042175293,-0.27434125542640686,0.8563568592071533,0.10401468724012375,0.4827243387699127,0.11748124659061432,0.9311308264732361,0.7218769788742065,-0.9258139133453369,-0.8434606790542603
TROW,0.1381216049194336,-0.2954275608062744,0.8628343343734741,0.08072424679994583,0.5049903988838196,0.13317811489105225,0.9422317743301392,0.7054433226585388,-0.9729111194610596,-0.8583394885063171
TTWO,0.2074277698993683,-0.3566858470439911,1.0609936714172363,0.09214721620082855,0.6474314332008362,0.17358392477035522,1.1606903076171875,0.8963441848754883,-1.1808810234069824,-1.0632743835449219
TPR,0.1750836968421936,-0.3262638449668884,0.9947454333305359,0.09032575786113739,0.6159647703170776,0.16601812839508057,1.0663177967071533,0.8369918465614319,-1.0803284645080566,-0.9812408685684204
TRGP,0.14366436004638672,-0.3152795135974884,0.9458558559417725,0.1275705248117447,0.5379529595375061,0.16837678849697113,1.0457861423492432,0.8031807541847229,-1.0627951622009277,-0.9375787973403931
TGT,0.17438603937625885,-0.36051541566848755,1.0850098133087158,0.11414514482021332,0.6373842358589172,0.1516379714012146,1.1733800172805786,0.8778605461120605,-1.1826421022415161,-1.056991696357727
TEL,0.1500462144613266,-0.3094483017921448,0.9477679133415222,0.12490487098693848,0.5458259582519531,0.16969355940818787,1.0254839658737183,0.8062974810600281,-1.0514280796051025,-0.9689186215400696
TDY,0.176179900765419,-0.3216188848018646,0.9463731050491333,0.12182111293077469,0.5346048474311829,0.16910359263420105,1.0609431266784668,0.8004064559936523,-1.094541072845459,-0.986020028591156
TFX,0.12078236043453217,-0.27138808369636536,0.7651932239532471,0.08431728929281235,0.430980920791626,0.12477989494800568,0.8301099538803101,0.6496680378913879,-0.8436508178710938,-0.779822826385498
TER,0.14160022139549255,-0.29549136757850647,0.8388845920562744,0.13225524127483368,0.4702420234680176,0.12612897157669067,0.90036541223526,0.7143605351448059,-0.9545038342475891,-0.877478837966919
TSLA,0.15247662365436554,-0.33010903000831604,0.9746497869491577,0.13532260060310364,0.5852475166320801,0.16583460569381714,1.068477749824524,0.8337321877479553,-1.116575837135315,-0.9793527126312256
TXN,0.0,0.0,0.0,0.0,0.0,0.0,0.0,0.0,0.0,0.0
TXT,0.17351311445236206,-0.35379183292388916,1.0342426300048828,0.12649711966514587,0.5935398936271667,0.1816968321800232,1.1465188264846802,0.8788377046585083,-1.1834179162979126,-1.0256550312042236
TMO,0.14076416194438934,-0.2527003586292267,0.7585135698318481,0.08128823339939117,0.45171263813972473,0.10461567342281342,0.8314720988273621,0.6474707126617432,-0.8614550232887268,-0.7694553136825562
TJX,0.1566089391708374,-0.29856759309768677,0.8614844679832458,0.0994744524359703,0.5022996664047241,0.12120399624109268,0.9443567991256714,0.7525660991668701,-0.9807903170585632,-0.8730189800262451
TSCO,0.18197482824325562,-0.3584098815917969,1.0135996341705322,0.09873933345079422,0.6068816781044006,0.14462611079216003,1.111945629119873,0.8436470627784729,-1.1286052465438843,-1.0256859064102173
TT,0.14770005643367767,-0.2876763939857483,0.9130252003669739,0.12424394488334656,0.5228767395019531,0.14991502463817596,1.0080183744430542,0.7653791904449463,-1.032138466835022,-0.9198908805847168
TDG,0.10983523726463318,-0.2554064393043518,0.7660654187202454,0.09642677009105682,0.44071125984191895,0.12985898554325104,0.8253232836723328,0.6235359907150269,-0.84808349609375,-0.7586130499839783
TRV,0.18062986433506012,-0.3215225636959076,0.8784752488136292,0.08991626650094986,0.5250462293624878,0.1435459703207016,0.9747170805931091,0.7421326041221619,-0.9776546955108643,-0.8980162739753723
TRMB,0.15902118384838104,-0.2765478491783142,0.884563148021698,0.1078459769487381,0.5190834999084473,0.13860207796096802,0.9590408802032471,0.7158382534980774,-0.9938012957572937,-0.8808903694152832
TFC,0.16496609151363373,-0.3588114380836487,0.988879382610321,0.10677893459796906,0.5680168271064758,0.14541201293468475,1.0802292823791504,0.8224465250968933,-1.1046191453933716,-0.9779771566390991
TYL,0.16173116862773895,-0.3486184775829315,1.1086207628250122,0.1571561098098755,0.6602233052253723,0.18114861845970154,1.208046317100525,0.8924883008003235,-1.2255579233169556,-1.0785249471664429
TSN,0.18092691898345947,-0.34383657574653625,1.0175796747207642,0.1123017743229866,0.6140596866607666,0.16642402112483978,1.1289061307907104,0.8668277263641357,-1.1552495956420898,-1.0201528072357178
USB,0.15273822844028473,-0.32118892669677734,0.9288771748542786,0.1042279303073883,0.5378795862197876,0.14610476791858673,1.0085229873657227,0.7593936920166016,-1.022658109664917,-0.919030487537384
UDR,0.13657835125923157,-0.27239054441452026,0.8722028136253357,0.09202983975410461,0.48814481496810913,0.10386492311954498,0.8951244354248047,0.6936601996421814,-0.9186400771141052,-0.8069301843643188
ULTA,0.1568376123905182,-0.28932514786720276,0.9179978370666504,0.09240777790546417,0.601253092288971,0.14853127300739288,0.9819211959838867,0.7805546522140503,-1.0518038272857666,-0.9721721410751343
UNP,0.15074984729290009,-0.2773675322532654,0.8086562156677246,0.09304919838905334,0.45934349298477173,0.10645213723182678,0.8924462199211121,0.6936370134353638,-0.8838288187980652,-0.8045210242271423
UAL,0.16949668526649475,-0.3430316150188446,1.0505291223526,0.09337824583053589,0.6535631418228149,0.1525048017501831,1.1462101936340332,0.8789252638816833,-1.1749145984649658,-1.043736219406128
UPS,0.15612587332725525,-0.3233303725719452,0.8592362999916077,0.08196358382701874,0.519907534122467,0.11420020461082458,0.9625923037528992,0.7199381589889526,-0.9732094407081604,-0.8627840876579285
URI,0.16009920835494995,-0.33664557337760925,0.9977344870567322,0.10258099436759949,0.5711770057678223,0.14311978220939636,1.0680822134017944,0.8233821392059326,-1.1002697944641113,-0.9919131994247437
UNH,0.20604564249515533,-0.3957449495792389,1.121230125427246,0.13430804014205933,0.6576299071311951,0.1837024688720703,1.2503790855407715,0.9567061066627502,-1.2759993076324463,-1.1547613143920898
UHS,0.1755075305700302,-0.35276082158088684,1.0566092729568481,0.09405088424682617,0.6334138512611389,0.19661520421504974,1.1849592924118042,0.887471079826355,-1.206909418106079,-1.0619027614593506
VLO,0.14578114449977875,-0.31800729036331177,0.9530958533287048,0.11156143993139267,0.5571646690368652,0.13963741064071655,1.0394290685653687,0.7738645672798157,-1.0609350204467773,-0.9345548748970032
VTR,0.16210518777370453,-0.32609763741493225,1.0476571321487427,0.122366763651371,0.6110677123069763,0.14121687412261963,1.0814449787139893,0.8608877658843994,-1.1288846731185913,-0.9681103825569153
VLTO,0.15538784861564636,-0.3192816376686096,0.9634471535682678,0.1213185265660286,0.5490574240684509,0.15417924523353577,1.0272648334503174,0.7944924831390381,-1.0492744445800781,-0.9425784349441528
VRSN,0.1873626857995987,-0.3692905008792877,1.0772134065628052,0.14917811751365662,0.6331251263618469,0.15165945887565613,1.192939281463623,0.9214164018630981,-1.2395176887512207,-1.0845810174942017
VRSK,0.16747814416885376,-0.2955980896949768,0.8161962628364563,0.08772844076156616,0.47832825779914856,0.1266116052865982,0.896212100982666,0.6894810199737549,-0.9308638572692871,-0.8369367718696594
VZ,0.14506764709949493,-0.28528082370758057,0.8542388677597046,0.08387137204408646,0.4909791946411133,0.12183675169944763,0.8934945464134216,0.6869941353797913,-0.9193755984306335,-0.8301000595092773
VRTX,0.11765330284833908,-0.24576200544834137,0.7525652050971985,0.1053219735622406,0.4285944998264313,0.12483209371566772,0.7953028082847595,0.6342084407806396,-0.8099583983421326,-0.7542245388031006
VFC,0.16293735802173615,-0.34237176179885864,1.0062670707702637,0.12561412155628204,0.5642354488372803,0.1589844524860382,1.0830217599868774,0.8453957438468933,-1.1044915914535522,-1.0089190006256104
VTRS,0.16010060906410217,-0.3367097079753876,1.0234246253967285,0.11781828105449677,0.6286028623580933,0.17618080973625183,1.097665786743164,0.8577073812484741,-1.1305080652236938,-1.0397744178771973
VICI,0.14881519973278046,-0.29107141494750977,0.9160468578338623,0.09183984994888306,0.5443039536476135,0.14547216892242432,0.9487130045890808,0.7544489502906799,-0.970051646232605,-0.8682225942611694
V,0.13493989408016205,-0.27793222665786743,0.8481545448303223,0.09247162193059921,0.48650893568992615,0.14954152703285217,0.9212335348129272,0.6918001174926758,-0.9419006109237671,-0.8573141694068909
VMC,0.13641871511936188,-0.28124067187309265,0.8092520833015442,0.09529383480548859,0.445827841758728,0.12127292901277542,0.8705711960792542,0.6488144993782043,-0.86447674036026,-0.7909789681434631
WAB,0.17377974092960358,-0.375044047832489,1.0860270261764526,0.12296215444803238,0.6570248603820801,0.17597845196723938,1.2044192552566528,0.9300359487533569,-1.2115960121154785,-1.1144089698791504
WBA,0.13440126180648804,-0.2701893746852875,0.7957283854484558,0.07859951257705688,0.46977320313453674,0.09821140766143799,0.8841409683227539,0.6695641279220581,-0.8988511562347412,-0.8102878928184509
WMT,0.1788177192211151,-0.3270641267299652,0.9980058073997498,0.08589828014373779,0.6067195534706116,0.13848721981048584,1.0992984771728516,0.8431476354598999,-1.1094026565551758,-1.0052767992019653
WBD,0.15030983090400696,-0.2724199891090393,0.8739690780639648,0.07382582128047943,0.5359696745872498,0.14538522064685822,0.9487577676773071,0.7282199859619141,-0.9682452082633972,-0.8674345016479492
WM,0.19843468070030212,-0.38085952401161194,1.087342381477356,0.11252274364233017,0.6166751384735107,0.16671568155288696,1.1804158687591553,0.8825922012329102,-1.1982934474945068,-1.0689462423324585
WAT,0.14496752619743347,-0.2901003062725067,0.8835014700889587,0.0804704874753952,0.5162866115570068,0.13425326347351074,0.9679213166236877,0.7582511901855469,-0.9912224411964417,-0.859973669052124
WEC,0.13059842586517334,-0.3250092566013336,0.9315223693847656,0.13927476108074188,0.5257694125175476,0.16137591004371643,1.057282567024231,0.8058136701583862,-1.0853077173233032,-0.945212185382843
WFC,0.15613651275634766,-0.3311512768268585,0.9814150929450989,0.11250969022512436,0.5708903074264526,0.14354415237903595,1.082230806350708,0.8037652373313904,-1.1045817136764526,-0.9753937125205994
WELL,0.15732072293758392,-0.30530908703804016,0.9525548219680786,0.10543717443943024,0.5278908610343933,0.14375153183937073,0.9823986887931824,0.7696510553359985,-1.015011191368103,-0.894222617149353
WST,0.0906389057636261,-0.1356649398803711,0.4647228717803955,-0.04821549355983734,0.2904719412326813,0.12449187785387039,0.5237820744514465,0.40338659286499023,-0.561118483543396,-0.478212833404541
WDC,0.15617609024047852,-0.31796520948410034,0.9439359307289124,0.0911015197634697,0.525922954082489,0.15419133007526398,1.0181560516357422,0.7813085913658142,-1.0354498624801636,-0.9630452394485474
WRK,0.19021964073181152,-0.34109899401664734,0.9970715641975403,0.1256069839000702,0.5717746019363403,0.15710555016994476,1.1112481355667114,0.8371840119361877,-1.1277782917022705,-1.0277563333511353
WY,0.2016770988702774,-0.3665049076080322,1.1076551675796509,0.15116311609745026,0.6109654903411865,0.16139544546604156,1.1733453273773193,0.9183328151702881,-1.1989271640777588,-1.0597777366638184
WHR,0.14771775901317596,-0.3412388265132904,0.9947459697723389,0.11462730169296265,0.5732266306877136,0.15513598918914795,1.0838302373886108,0.8118708729743958,-1.106921911239624,-0.9813908934593201
WMB,0.15762697160243988,-0.29914218187332153,0.8776917457580566,0.11375879496335983,0.5059313774108887,0.18353115022182465,0.9801284074783325,0.723359227180481,-1.0014865398406982,-0.8726555705070496
WTW,0.16775064170360565,-0.35353168845176697,1.0061453580856323,0.12031542509794235,0.5960110425949097,0.15185341238975525,1.1186859607696533,0.886768639087677,-1.1297072172164917,-1.0419179201126099
GWW,0.16415153443813324,-0.3067781329154968,0.8409327268600464,0.09985887259244919,0.5048532485961914,0.12432979792356491,0.9382508397102356,0.7199209928512573,-0.9458643794059753,-0.875578761100769
WYNN,0.10961040109395981,-0.27232587337493896,0.7441530227661133,0.07006257772445679,0.4023589491844177,0.12109202891588211,0.8126324415206909,0.6415953636169434,-0.8170139789581299,-0.7450532913208008
XEL,0.13048413395881653,-0.2768400013446808,0.898779034614563,0.1389818638563156,0.5025503039360046,0.143874853849411,0.9584391117095947,0.7356798648834229,-0.982496976852417,-0.8625822067260742
XYL,0.15942500531673431,-0.3164218068122864,0.9273821711540222,0.1127854511141777,0.509050726890564,0.1474260538816452,1.007570743560791,0.7591925263404846,-1.02547025680542,-0.9202827215194702
YUM,0.11334734410047531,-0.23551225662231445,0.7380663156509399,0.10092005878686905,0.46242639422416687,0.10126399993896484,0.8030323386192322,0.6286267042160034,-0.828403651714325,-0.7333749532699585
ZBRA,0.16144365072250366,-0.3100240230560303,0.95060133934021,0.12079661339521408,0.5622736811637878,0.15803895890712738,1.0335298776626587,0.769917905330658,-1.0488510131835938,-0.9492558836936951
ZBH,0.1522171050310135,-0.3311110734939575,0.9613560438156128,0.09628243744373322,0.5787942409515381,0.15842999517917633,1.05867338180542,0.8286054730415344,-1.0863010883331299,-0.9778754711151123
ZION,0.1705550253391266,-0.32381296157836914,0.9315218925476074,0.08388325572013855,0.5237523317337036,0.16111396253108978,1.0257560014724731,0.7896823287010193,-1.0220438241958618,-0.8764474987983704
ZTS,0.16871123015880585,-0.3399118185043335,0.9802330136299133,0.10939542949199677,0.5835462212562561,0.16553522646427155,1.0711544752120972,0.8183034658432007,-1.1082158088684082,-0.9867306351661682
